digraph Tree {
node [shape=box] ;
0 [label="P2X <= 72.5\nentropy = 1.366\nsamples = 267261\nvalue = [217, 53822, 50815, 162407]"] ;
1 [label="BallSpeedY <= -3.5\nentropy = 1.607\nsamples = 75494\nvalue = [217, 25629, 23161, 26487]"] ;
0 -> 1 [labeldistance=2.5, labelangle=45, headlabel="True"] ;
2 [label="BallY <= 316.5\nentropy = 1.196\nsamples = 49570\nvalue = [0, 23685, 1901, 23984]"] ;
1 -> 2 ;
3 [label="P2X <= 2.5\nentropy = 1.188\nsamples = 39599\nvalue = [0, 15526, 1679, 22394]"] ;
2 -> 3 ;
4 [label="ballDir <= 1.0\nentropy = 0.75\nsamples = 5052\nvalue = [0, 4121, 56, 875]"] ;
3 -> 4 ;
5 [label="BallY <= 264.5\nentropy = 1.413\nsamples = 211\nvalue = [0, 72, 29, 110]"] ;
4 -> 5 ;
6 [label="BallX <= 12.5\nentropy = 1.227\nsamples = 136\nvalue = [0, 16, 29, 91]"] ;
5 -> 6 ;
7 [label="P1X <= 7.5\nentropy = 0.149\nsamples = 47\nvalue = [0, 1, 0, 46]"] ;
6 -> 7 ;
8 [label="BallY <= 85.5\nentropy = 0.918\nsamples = 3\nvalue = [0, 1, 0, 2]"] ;
7 -> 8 ;
9 [label="entropy = 0.0\nsamples = 1\nvalue = [0, 1, 0, 0]"] ;
8 -> 9 ;
10 [label="entropy = 0.0\nsamples = 2\nvalue = [0, 0, 0, 2]"] ;
8 -> 10 ;
11 [label="entropy = 0.0\nsamples = 44\nvalue = [0, 0, 0, 44]"] ;
7 -> 11 ;
12 [label="BallSpeedY <= -9.5\nentropy = 1.458\nsamples = 89\nvalue = [0, 15, 29, 45]"] ;
6 -> 12 ;
13 [label="BallY <= 243.0\nentropy = 0.937\nsamples = 34\nvalue = [0, 12, 22, 0]"] ;
12 -> 13 ;
14 [label="BallX <= 14.0\nentropy = 0.258\nsamples = 23\nvalue = [0, 1, 22, 0]"] ;
13 -> 14 ;
15 [label="P1X <= 17.5\nentropy = 0.592\nsamples = 7\nvalue = [0, 1, 6, 0]"] ;
14 -> 15 ;
16 [label="entropy = 0.0\nsamples = 1\nvalue = [0, 1, 0, 0]"] ;
15 -> 16 ;
17 [label="entropy = 0.0\nsamples = 6\nvalue = [0, 0, 6, 0]"] ;
15 -> 17 ;
18 [label="entropy = 0.0\nsamples = 16\nvalue = [0, 0, 16, 0]"] ;
14 -> 18 ;
19 [label="entropy = 0.0\nsamples = 11\nvalue = [0, 11, 0, 0]"] ;
13 -> 19 ;
20 [label="BallY <= 256.5\nentropy = 0.844\nsamples = 55\nvalue = [0, 3, 7, 45]"] ;
12 -> 20 ;
21 [label="BallX <= 192.0\nentropy = 1.253\nsamples = 17\nvalue = [0, 1, 7, 9]"] ;
20 -> 21 ;
22 [label="entropy = 0.0\nsamples = 9\nvalue = [0, 0, 0, 9]"] ;
21 -> 22 ;
23 [label="P1X <= 12.5\nentropy = 0.544\nsamples = 8\nvalue = [0, 1, 7, 0]"] ;
21 -> 23 ;
24 [label="entropy = 0.0\nsamples = 1\nvalue = [0, 1, 0, 0]"] ;
23 -> 24 ;
25 [label="entropy = 0.0\nsamples = 7\nvalue = [0, 0, 7, 0]"] ;
23 -> 25 ;
26 [label="P1X <= 30.0\nentropy = 0.297\nsamples = 38\nvalue = [0, 2, 0, 36]"] ;
20 -> 26 ;
27 [label="entropy = 0.0\nsamples = 17\nvalue = [0, 0, 0, 17]"] ;
26 -> 27 ;
28 [label="blockerX <= 95.0\nentropy = 0.454\nsamples = 21\nvalue = [0, 2, 0, 19]"] ;
26 -> 28 ;
29 [label="BallSpeedX <= 0.0\nentropy = 0.567\nsamples = 15\nvalue = [0, 2, 0, 13]"] ;
28 -> 29 ;
30 [label="entropy = 0.65\nsamples = 12\nvalue = [0, 2, 0, 10]"] ;
29 -> 30 ;
31 [label="entropy = 0.0\nsamples = 3\nvalue = [0, 0, 0, 3]"] ;
29 -> 31 ;
32 [label="entropy = 0.0\nsamples = 6\nvalue = [0, 0, 0, 6]"] ;
28 -> 32 ;
33 [label="blockerX <= 22.5\nentropy = 0.817\nsamples = 75\nvalue = [0, 56, 0, 19]"] ;
5 -> 33 ;
34 [label="entropy = 0.0\nsamples = 11\nvalue = [0, 0, 0, 11]"] ;
33 -> 34 ;
35 [label="BallSpeedX <= 8.5\nentropy = 0.544\nsamples = 64\nvalue = [0, 56, 0, 8]"] ;
33 -> 35 ;
36 [label="blockerX <= 27.5\nentropy = 0.353\nsamples = 60\nvalue = [0, 56, 0, 4]"] ;
35 -> 36 ;
37 [label="BallY <= 275.0\nentropy = 0.863\nsamples = 14\nvalue = [0, 10, 0, 4]"] ;
36 -> 37 ;
38 [label="entropy = 0.0\nsamples = 4\nvalue = [0, 0, 0, 4]"] ;
37 -> 38 ;
39 [label="entropy = 0.0\nsamples = 10\nvalue = [0, 10, 0, 0]"] ;
37 -> 39 ;
40 [label="entropy = 0.0\nsamples = 46\nvalue = [0, 46, 0, 0]"] ;
36 -> 40 ;
41 [label="entropy = 0.0\nsamples = 4\nvalue = [0, 0, 0, 4]"] ;
35 -> 41 ;
42 [label="blockerX <= 112.5\nentropy = 0.678\nsamples = 4841\nvalue = [0, 4049, 27, 765]"] ;
4 -> 42 ;
43 [label="P1X <= 52.5\nentropy = 0.737\nsamples = 3280\nvalue = [0, 2599, 0, 681]"] ;
42 -> 43 ;
44 [label="P1X <= 7.5\nentropy = 0.538\nsamples = 2615\nvalue = [0, 2293, 0, 322]"] ;
43 -> 44 ;
45 [label="P1X <= 2.5\nentropy = 0.983\nsamples = 345\nvalue = [0, 199, 0, 146]"] ;
44 -> 45 ;
46 [label="BallSpeedX <= -18.0\nentropy = 0.348\nsamples = 199\nvalue = [0, 186, 0, 13]"] ;
45 -> 46 ;
47 [label="entropy = 0.0\nsamples = 13\nvalue = [0, 0, 0, 13]"] ;
46 -> 47 ;
48 [label="entropy = 0.0\nsamples = 186\nvalue = [0, 186, 0, 0]"] ;
46 -> 48 ;
49 [label="BallY <= 96.5\nentropy = 0.433\nsamples = 146\nvalue = [0, 13, 0, 133]"] ;
45 -> 49 ;
50 [label="BallSpeedX <= 11.5\nentropy = 0.544\nsamples = 8\nvalue = [0, 7, 0, 1]"] ;
49 -> 50 ;
51 [label="entropy = 0.592\nsamples = 7\nvalue = [0, 6, 0, 1]"] ;
50 -> 51 ;
52 [label="entropy = 0.0\nsamples = 1\nvalue = [0, 1, 0, 0]"] ;
50 -> 52 ;
53 [label="BallSpeedY <= -13.0\nentropy = 0.258\nsamples = 138\nvalue = [0, 6, 0, 132]"] ;
49 -> 53 ;
54 [label="entropy = 0.0\nsamples = 5\nvalue = [0, 5, 0, 0]"] ;
53 -> 54 ;
55 [label="BallX <= 154.5\nentropy = 0.064\nsamples = 133\nvalue = [0, 1, 0, 132]"] ;
53 -> 55 ;
56 [label="entropy = 0.0\nsamples = 128\nvalue = [0, 0, 0, 128]"] ;
55 -> 56 ;
57 [label="entropy = 0.722\nsamples = 5\nvalue = [0, 1, 0, 4]"] ;
55 -> 57 ;
58 [label="P1X <= 47.5\nentropy = 0.393\nsamples = 2270\nvalue = [0, 2094, 0, 176]"] ;
44 -> 58 ;
59 [label="BallSpeedY <= -14.5\nentropy = 0.309\nsamples = 1999\nvalue = [0, 1888, 0, 111]"] ;
58 -> 59 ;
60 [label="P1X <= 22.5\nentropy = 0.753\nsamples = 310\nvalue = [0, 243, 0, 67]"] ;
59 -> 60 ;
61 [label="BallY <= 99.5\nentropy = 0.915\nsamples = 97\nvalue = [0, 32, 0, 65]"] ;
60 -> 61 ;
62 [label="blockerX <= 50.0\nentropy = 0.345\nsamples = 31\nvalue = [0, 29, 0, 2]"] ;
61 -> 62 ;
63 [label="blockerX <= 40.0\nentropy = 0.722\nsamples = 10\nvalue = [0, 8, 0, 2]"] ;
62 -> 63 ;
64 [label="P1X <= 17.5\nentropy = 0.503\nsamples = 9\nvalue = [0, 8, 0, 1]"] ;
63 -> 64 ;
65 [label="BallSpeedY <= -16.5\nentropy = 0.918\nsamples = 3\nvalue = [0, 2, 0, 1]"] ;
64 -> 65 ;
66 [label="entropy = 0.0\nsamples = 2\nvalue = [0, 2, 0, 0]"] ;
65 -> 66 ;
67 [label="entropy = 0.0\nsamples = 1\nvalue = [0, 0, 0, 1]"] ;
65 -> 67 ;
68 [label="entropy = 0.0\nsamples = 6\nvalue = [0, 6, 0, 0]"] ;
64 -> 68 ;
69 [label="entropy = 0.0\nsamples = 1\nvalue = [0, 0, 0, 1]"] ;
63 -> 69 ;
70 [label="entropy = 0.0\nsamples = 21\nvalue = [0, 21, 0, 0]"] ;
62 -> 70 ;
71 [label="BallSpeedY <= -17.5\nentropy = 0.267\nsamples = 66\nvalue = [0, 3, 0, 63]"] ;
61 -> 71 ;
72 [label="entropy = 0.0\nsamples = 1\nvalue = [0, 1, 0, 0]"] ;
71 -> 72 ;
73 [label="blockerX <= 37.5\nentropy = 0.198\nsamples = 65\nvalue = [0, 2, 0, 63]"] ;
71 -> 73 ;
74 [label="BallX <= 11.0\nentropy = 0.402\nsamples = 25\nvalue = [0, 2, 0, 23]"] ;
73 -> 74 ;
75 [label="entropy = 0.0\nsamples = 9\nvalue = [0, 0, 0, 9]"] ;
74 -> 75 ;
76 [label="BallSpeedX <= -15.5\nentropy = 0.544\nsamples = 16\nvalue = [0, 2, 0, 14]"] ;
74 -> 76 ;
77 [label="P1X <= 17.5\nentropy = 0.764\nsamples = 9\nvalue = [0, 2, 0, 7]"] ;
76 -> 77 ;
78 [label="entropy = 0.0\nsamples = 1\nvalue = [0, 1, 0, 0]"] ;
77 -> 78 ;
79 [label="blockerX <= 25.0\nentropy = 0.544\nsamples = 8\nvalue = [0, 1, 0, 7]"] ;
77 -> 79 ;
80 [label="entropy = 0.0\nsamples = 7\nvalue = [0, 0, 0, 7]"] ;
79 -> 80 ;
81 [label="entropy = 0.0\nsamples = 1\nvalue = [0, 1, 0, 0]"] ;
79 -> 81 ;
82 [label="entropy = 0.0\nsamples = 7\nvalue = [0, 0, 0, 7]"] ;
76 -> 82 ;
83 [label="entropy = 0.0\nsamples = 40\nvalue = [0, 0, 0, 40]"] ;
73 -> 83 ;
84 [label="BallSpeedX <= -18.5\nentropy = 0.077\nsamples = 213\nvalue = [0, 211, 0, 2]"] ;
60 -> 84 ;
85 [label="entropy = 0.0\nsamples = 2\nvalue = [0, 0, 0, 2]"] ;
84 -> 85 ;
86 [label="entropy = 0.0\nsamples = 211\nvalue = [0, 211, 0, 0]"] ;
84 -> 86 ;
87 [label="P1X <= 37.5\nentropy = 0.174\nsamples = 1689\nvalue = [0, 1645, 0, 44]"] ;
59 -> 87 ;
88 [label="BallX <= 131.0\nentropy = 0.101\nsamples = 1449\nvalue = [0, 1430, 0, 19]"] ;
87 -> 88 ;
89 [label="entropy = 0.0\nsamples = 1222\nvalue = [0, 1222, 0, 0]"] ;
88 -> 89 ;
90 [label="blockerDir <= 0.0\nentropy = 0.415\nsamples = 227\nvalue = [0, 208, 0, 19]"] ;
88 -> 90 ;
91 [label="entropy = 0.0\nsamples = 134\nvalue = [0, 134, 0, 0]"] ;
90 -> 91 ;
92 [label="BallSpeedX <= -9.5\nentropy = 0.73\nsamples = 93\nvalue = [0, 74, 0, 19]"] ;
90 -> 92 ;
93 [label="entropy = 0.0\nsamples = 40\nvalue = [0, 40, 0, 0]"] ;
92 -> 93 ;
94 [label="blockerX <= 35.0\nentropy = 0.941\nsamples = 53\nvalue = [0, 34, 0, 19]"] ;
92 -> 94 ;
95 [label="entropy = 0.0\nsamples = 33\nvalue = [0, 33, 0, 0]"] ;
94 -> 95 ;
96 [label="BallY <= 197.5\nentropy = 0.286\nsamples = 20\nvalue = [0, 1, 0, 19]"] ;
94 -> 96 ;
97 [label="P1X <= 32.5\nentropy = 0.811\nsamples = 4\nvalue = [0, 1, 0, 3]"] ;
96 -> 97 ;
98 [label="entropy = 0.0\nsamples = 1\nvalue = [0, 1, 0, 0]"] ;
97 -> 98 ;
99 [label="entropy = 0.0\nsamples = 3\nvalue = [0, 0, 0, 3]"] ;
97 -> 99 ;
100 [label="entropy = 0.0\nsamples = 16\nvalue = [0, 0, 0, 16]"] ;
96 -> 100 ;
101 [label="blockerX <= 72.5\nentropy = 0.482\nsamples = 240\nvalue = [0, 215, 0, 25]"] ;
87 -> 101 ;
102 [label="entropy = 0.0\nsamples = 141\nvalue = [0, 141, 0, 0]"] ;
101 -> 102 ;
103 [label="BallSpeedX <= -11.5\nentropy = 0.815\nsamples = 99\nvalue = [0, 74, 0, 25]"] ;
101 -> 103 ;
104 [label="entropy = 0.0\nsamples = 46\nvalue = [0, 46, 0, 0]"] ;
103 -> 104 ;
105 [label="BallSpeedX <= -10.5\nentropy = 0.998\nsamples = 53\nvalue = [0, 28, 0, 25]"] ;
103 -> 105 ;
106 [label="entropy = 0.0\nsamples = 19\nvalue = [0, 0, 0, 19]"] ;
105 -> 106 ;
107 [label="BallY <= 140.5\nentropy = 0.672\nsamples = 34\nvalue = [0, 28, 0, 6]"] ;
105 -> 107 ;
108 [label="blockerDir <= 0.0\nentropy = 0.297\nsamples = 19\nvalue = [0, 18, 0, 1]"] ;
107 -> 108 ;
109 [label="entropy = 0.0\nsamples = 1\nvalue = [0, 0, 0, 1]"] ;
108 -> 109 ;
110 [label="entropy = 0.0\nsamples = 18\nvalue = [0, 18, 0, 0]"] ;
108 -> 110 ;
111 [label="blockerDir <= 0.0\nentropy = 0.918\nsamples = 15\nvalue = [0, 10, 0, 5]"] ;
107 -> 111 ;
112 [label="entropy = 0.0\nsamples = 10\nvalue = [0, 10, 0, 0]"] ;
111 -> 112 ;
113 [label="entropy = 0.0\nsamples = 5\nvalue = [0, 0, 0, 5]"] ;
111 -> 113 ;
114 [label="BallSpeedX <= -12.5\nentropy = 0.795\nsamples = 271\nvalue = [0, 206, 0, 65]"] ;
58 -> 114 ;
115 [label="BallSpeedX <= -16.5\nentropy = 0.053\nsamples = 166\nvalue = [0, 165, 0, 1]"] ;
114 -> 115 ;
116 [label="entropy = 0.0\nsamples = 1\nvalue = [0, 0, 0, 1]"] ;
115 -> 116 ;
117 [label="entropy = 0.0\nsamples = 165\nvalue = [0, 165, 0, 0]"] ;
115 -> 117 ;
118 [label="BallX <= 160.5\nentropy = 0.965\nsamples = 105\nvalue = [0, 41, 0, 64]"] ;
114 -> 118 ;
119 [label="blockerDir <= 0.0\nentropy = 0.273\nsamples = 64\nvalue = [0, 3, 0, 61]"] ;
118 -> 119 ;
120 [label="BallY <= 132.5\nentropy = 0.985\nsamples = 7\nvalue = [0, 3, 0, 4]"] ;
119 -> 120 ;
121 [label="entropy = 0.0\nsamples = 4\nvalue = [0, 0, 0, 4]"] ;
120 -> 121 ;
122 [label="entropy = 0.0\nsamples = 3\nvalue = [0, 3, 0, 0]"] ;
120 -> 122 ;
123 [label="entropy = 0.0\nsamples = 57\nvalue = [0, 0, 0, 57]"] ;
119 -> 123 ;
124 [label="BallSpeedY <= -8.5\nentropy = 0.378\nsamples = 41\nvalue = [0, 38, 0, 3]"] ;
118 -> 124 ;
125 [label="entropy = 0.0\nsamples = 25\nvalue = [0, 25, 0, 0]"] ;
124 -> 125 ;
126 [label="blockerX <= 90.0\nentropy = 0.696\nsamples = 16\nvalue = [0, 13, 0, 3]"] ;
124 -> 126 ;
127 [label="entropy = 0.845\nsamples = 11\nvalue = [0, 8, 0, 3]"] ;
126 -> 127 ;
128 [label="entropy = 0.0\nsamples = 5\nvalue = [0, 5, 0, 0]"] ;
126 -> 128 ;
129 [label="BallSpeedY <= -8.5\nentropy = 0.995\nsamples = 665\nvalue = [0, 306, 0, 359]"] ;
43 -> 129 ;
130 [label="BallSpeedX <= -10.5\nentropy = 0.846\nsamples = 494\nvalue = [0, 135, 0, 359]"] ;
129 -> 130 ;
131 [label="P1X <= 57.5\nentropy = 0.998\nsamples = 255\nvalue = [0, 135, 0, 120]"] ;
130 -> 131 ;
132 [label="BallX <= 28.0\nentropy = 0.371\nsamples = 126\nvalue = [0, 9, 0, 117]"] ;
131 -> 132 ;
133 [label="entropy = 0.0\nsamples = 6\nvalue = [0, 6, 0, 0]"] ;
132 -> 133 ;
134 [label="BallSpeedY <= -11.5\nentropy = 0.169\nsamples = 120\nvalue = [0, 3, 0, 117]"] ;
132 -> 134 ;
135 [label="BallX <= 129.0\nentropy = 0.071\nsamples = 118\nvalue = [0, 1, 0, 117]"] ;
134 -> 135 ;
136 [label="entropy = 0.0\nsamples = 99\nvalue = [0, 0, 0, 99]"] ;
135 -> 136 ;
137 [label="blockerX <= 37.5\nentropy = 0.297\nsamples = 19\nvalue = [0, 1, 0, 18]"] ;
135 -> 137 ;
138 [label="entropy = 0.0\nsamples = 11\nvalue = [0, 0, 0, 11]"] ;
137 -> 138 ;
139 [label="entropy = 0.544\nsamples = 8\nvalue = [0, 1, 0, 7]"] ;
137 -> 139 ;
140 [label="entropy = 0.0\nsamples = 2\nvalue = [0, 2, 0, 0]"] ;
134 -> 140 ;
141 [label="blockerX <= 55.0\nentropy = 0.159\nsamples = 129\nvalue = [0, 126, 0, 3]"] ;
131 -> 141 ;
142 [label="entropy = 0.0\nsamples = 3\nvalue = [0, 0, 0, 3]"] ;
141 -> 142 ;
143 [label="entropy = 0.0\nsamples = 126\nvalue = [0, 126, 0, 0]"] ;
141 -> 143 ;
144 [label="entropy = 0.0\nsamples = 239\nvalue = [0, 0, 0, 239]"] ;
130 -> 144 ;
145 [label="entropy = 0.0\nsamples = 171\nvalue = [0, 171, 0, 0]"] ;
129 -> 145 ;
146 [label="ballDir <= 2.5\nentropy = 0.427\nsamples = 1561\nvalue = [0, 1450, 27, 84]"] ;
42 -> 146 ;
147 [label="BallSpeedX <= -18.5\nentropy = 0.3\nsamples = 1517\nvalue = [0, 1438, 1, 78]"] ;
146 -> 147 ;
148 [label="entropy = 0.0\nsamples = 16\nvalue = [0, 0, 0, 16]"] ;
147 -> 148 ;
149 [label="P1X <= 32.5\nentropy = 0.256\nsamples = 1501\nvalue = [0, 1438, 1, 62]"] ;
147 -> 149 ;
150 [label="BallX <= 15.5\nentropy = 0.017\nsamples = 642\nvalue = [0, 641, 0, 1]"] ;
149 -> 150 ;
151 [label="BallY <= 121.0\nentropy = 0.159\nsamples = 43\nvalue = [0, 42, 0, 1]"] ;
150 -> 151 ;
152 [label="entropy = 0.0\nsamples = 42\nvalue = [0, 42, 0, 0]"] ;
151 -> 152 ;
153 [label="entropy = 0.0\nsamples = 1\nvalue = [0, 0, 0, 1]"] ;
151 -> 153 ;
154 [label="entropy = 0.0\nsamples = 599\nvalue = [0, 599, 0, 0]"] ;
150 -> 154 ;
155 [label="P1X <= 42.5\nentropy = 0.383\nsamples = 859\nvalue = [0, 797, 1, 61]"] ;
149 -> 155 ;
156 [label="P1X <= 37.5\nentropy = 1.0\nsamples = 90\nvalue = [0, 45, 0, 45]"] ;
155 -> 156 ;
157 [label="blockerX <= 152.5\nentropy = 0.414\nsamples = 48\nvalue = [0, 44, 0, 4]"] ;
156 -> 157 ;
158 [label="entropy = 0.0\nsamples = 40\nvalue = [0, 40, 0, 0]"] ;
157 -> 158 ;
159 [label="BallY <= 172.5\nentropy = 1.0\nsamples = 8\nvalue = [0, 4, 0, 4]"] ;
157 -> 159 ;
160 [label="entropy = 0.0\nsamples = 4\nvalue = [0, 4, 0, 0]"] ;
159 -> 160 ;
161 [label="entropy = 0.0\nsamples = 4\nvalue = [0, 0, 0, 4]"] ;
159 -> 161 ;
162 [label="blockerX <= 157.5\nentropy = 0.162\nsamples = 42\nvalue = [0, 1, 0, 41]"] ;
156 -> 162 ;
163 [label="entropy = 0.0\nsamples = 41\nvalue = [0, 0, 0, 41]"] ;
162 -> 163 ;
164 [label="entropy = 0.0\nsamples = 1\nvalue = [0, 1, 0, 0]"] ;
162 -> 164 ;
165 [label="BallSpeedY <= -10.0\nentropy = 0.16\nsamples = 769\nvalue = [0, 752, 1, 16]"] ;
155 -> 165 ;
166 [label="entropy = 0.0\nsamples = 485\nvalue = [0, 485, 0, 0]"] ;
165 -> 166 ;
167 [label="BallSpeedX <= -8.5\nentropy = 0.346\nsamples = 284\nvalue = [0, 267, 1, 16]"] ;
165 -> 167 ;
168 [label="BallY <= 218.0\nentropy = 0.323\nsamples = 17\nvalue = [0, 0, 1, 16]"] ;
167 -> 168 ;
169 [label="entropy = 0.0\nsamples = 16\nvalue = [0, 0, 0, 16]"] ;
168 -> 169 ;
170 [label="entropy = 0.0\nsamples = 1\nvalue = [0, 0, 1, 0]"] ;
168 -> 170 ;
171 [label="entropy = 0.0\nsamples = 267\nvalue = [0, 267, 0, 0]"] ;
167 -> 171 ;
172 [label="blockerX <= 162.5\nentropy = 1.352\nsamples = 44\nvalue = [0, 12, 26, 6]"] ;
146 -> 172 ;
173 [label="blockerX <= 155.0\nentropy = 1.194\nsamples = 18\nvalue = [0, 11, 1, 6]"] ;
172 -> 173 ;
174 [label="entropy = 0.0\nsamples = 11\nvalue = [0, 11, 0, 0]"] ;
173 -> 174 ;
175 [label="BallX <= 177.0\nentropy = 0.592\nsamples = 7\nvalue = [0, 0, 1, 6]"] ;
173 -> 175 ;
176 [label="entropy = 0.0\nsamples = 1\nvalue = [0, 0, 1, 0]"] ;
175 -> 176 ;
177 [label="entropy = 0.0\nsamples = 6\nvalue = [0, 0, 0, 6]"] ;
175 -> 177 ;
178 [label="BallSpeedY <= -10.5\nentropy = 0.235\nsamples = 26\nvalue = [0, 1, 25, 0]"] ;
172 -> 178 ;
179 [label="entropy = 0.0\nsamples = 19\nvalue = [0, 0, 19, 0]"] ;
178 -> 179 ;
180 [label="entropy = 0.592\nsamples = 7\nvalue = [0, 1, 6, 0]"] ;
178 -> 180 ;
181 [label="BallSpeedY <= -11.5\nentropy = 1.161\nsamples = 34547\nvalue = [0, 11405, 1623, 21519]"] ;
3 -> 181 ;
182 [label="BallY <= 177.5\nentropy = 1.264\nsamples = 20698\nvalue = [0, 9288, 1231, 10179]"] ;
181 -> 182 ;
183 [label="ballDir <= 1.0\nentropy = 1.079\nsamples = 8539\nvalue = [0, 2414, 336, 5789]"] ;
182 -> 183 ;
184 [label="BallY <= 80.0\nentropy = 1.024\nsamples = 1641\nvalue = [0, 124, 280, 1237]"] ;
183 -> 184 ;
185 [label="entropy = 0.0\nsamples = 68\nvalue = [0, 68, 0, 0]"] ;
184 -> 185 ;
186 [label="BallY <= 140.5\nentropy = 0.887\nsamples = 1573\nvalue = [0, 56, 280, 1237]"] ;
184 -> 186 ;
187 [label="BallX <= 16.5\nentropy = 0.704\nsamples = 1400\nvalue = [0, 51, 147, 1202]"] ;
186 -> 187 ;
188 [label="P1X <= 2.5\nentropy = 1.293\nsamples = 243\nvalue = [0, 27, 66, 150]"] ;
187 -> 188 ;
189 [label="BallX <= 14.5\nentropy = 1.106\nsamples = 113\nvalue = [0, 2, 60, 51]"] ;
188 -> 189 ;
190 [label="BallY <= 111.0\nentropy = 0.99\nsamples = 66\nvalue = [0, 1, 20, 45]"] ;
189 -> 190 ;
191 [label="BallY <= 88.0\nentropy = 0.183\nsamples = 36\nvalue = [0, 1, 0, 35]"] ;
190 -> 191 ;
192 [label="entropy = 0.592\nsamples = 7\nvalue = [0, 1, 0, 6]"] ;
191 -> 192 ;
193 [label="entropy = 0.0\nsamples = 29\nvalue = [0, 0, 0, 29]"] ;
191 -> 193 ;
194 [label="BallSpeedX <= 13.5\nentropy = 0.918\nsamples = 30\nvalue = [0, 0, 20, 10]"] ;
190 -> 194 ;
195 [label="blockerX <= 62.5\nentropy = 1.0\nsamples = 20\nvalue = [0, 0, 10, 10]"] ;
194 -> 195 ;
196 [label="entropy = 0.0\nsamples = 10\nvalue = [0, 0, 0, 10]"] ;
195 -> 196 ;
197 [label="entropy = 0.0\nsamples = 10\nvalue = [0, 0, 10, 0]"] ;
195 -> 197 ;
198 [label="entropy = 0.0\nsamples = 10\nvalue = [0, 0, 10, 0]"] ;
194 -> 198 ;
199 [label="BallSpeedY <= -15.5\nentropy = 0.695\nsamples = 47\nvalue = [0, 1, 40, 6]"] ;
189 -> 199 ;
200 [label="blockerX <= 80.0\nentropy = 1.325\nsamples = 12\nvalue = [0, 1, 5, 6]"] ;
199 -> 200 ;
201 [label="entropy = 0.0\nsamples = 6\nvalue = [0, 0, 0, 6]"] ;
200 -> 201 ;
202 [label="P2X <= 22.5\nentropy = 0.65\nsamples = 6\nvalue = [0, 1, 5, 0]"] ;
200 -> 202 ;
203 [label="entropy = 0.0\nsamples = 5\nvalue = [0, 0, 5, 0]"] ;
202 -> 203 ;
204 [label="entropy = 0.0\nsamples = 1\nvalue = [0, 1, 0, 0]"] ;
202 -> 204 ;
205 [label="entropy = 0.0\nsamples = 35\nvalue = [0, 0, 35, 0]"] ;
199 -> 205 ;
206 [label="P2X <= 22.5\nentropy = 0.962\nsamples = 130\nvalue = [0, 25, 6, 99]"] ;
188 -> 206 ;
207 [label="BallSpeedX <= 13.5\nentropy = 0.84\nsamples = 35\nvalue = [0, 1, 6, 28]"] ;
206 -> 207 ;
208 [label="BallSpeedY <= -12.5\nentropy = 0.996\nsamples = 13\nvalue = [0, 0, 6, 7]"] ;
207 -> 208 ;
209 [label="entropy = 0.0\nsamples = 6\nvalue = [0, 0, 6, 0]"] ;
208 -> 209 ;
210 [label="entropy = 0.0\nsamples = 7\nvalue = [0, 0, 0, 7]"] ;
208 -> 210 ;
211 [label="BallY <= 89.0\nentropy = 0.267\nsamples = 22\nvalue = [0, 1, 0, 21]"] ;
207 -> 211 ;
212 [label="entropy = 0.0\nsamples = 1\nvalue = [0, 1, 0, 0]"] ;
211 -> 212 ;
213 [label="entropy = 0.0\nsamples = 21\nvalue = [0, 0, 0, 21]"] ;
211 -> 213 ;
214 [label="BallY <= 107.0\nentropy = 0.815\nsamples = 95\nvalue = [0, 24, 0, 71]"] ;
206 -> 214 ;
215 [label="entropy = 0.0\nsamples = 13\nvalue = [0, 13, 0, 0]"] ;
214 -> 215 ;
216 [label="blockerX <= 32.5\nentropy = 0.569\nsamples = 82\nvalue = [0, 11, 0, 71]"] ;
214 -> 216 ;
217 [label="entropy = 0.0\nsamples = 3\nvalue = [0, 3, 0, 0]"] ;
216 -> 217 ;
218 [label="blockerX <= 70.0\nentropy = 0.473\nsamples = 79\nvalue = [0, 8, 0, 71]"] ;
216 -> 218 ;
219 [label="blockerX <= 50.0\nentropy = 0.852\nsamples = 18\nvalue = [0, 5, 0, 13]"] ;
218 -> 219 ;
220 [label="P1X <= 22.5\nentropy = 0.567\nsamples = 15\nvalue = [0, 2, 0, 13]"] ;
219 -> 220 ;
221 [label="entropy = 0.0\nsamples = 1\nvalue = [0, 1, 0, 0]"] ;
220 -> 221 ;
222 [label="blockerX <= 42.5\nentropy = 0.371\nsamples = 14\nvalue = [0, 1, 0, 13]"] ;
220 -> 222 ;
223 [label="entropy = 0.0\nsamples = 6\nvalue = [0, 0, 0, 6]"] ;
222 -> 223 ;
224 [label="entropy = 0.544\nsamples = 8\nvalue = [0, 1, 0, 7]"] ;
222 -> 224 ;
225 [label="entropy = 0.0\nsamples = 3\nvalue = [0, 3, 0, 0]"] ;
219 -> 225 ;
226 [label="blockerX <= 105.0\nentropy = 0.283\nsamples = 61\nvalue = [0, 3, 0, 58]"] ;
218 -> 226 ;
227 [label="entropy = 0.0\nsamples = 28\nvalue = [0, 0, 0, 28]"] ;
226 -> 227 ;
228 [label="P1X <= 7.5\nentropy = 0.439\nsamples = 33\nvalue = [0, 3, 0, 30]"] ;
226 -> 228 ;
229 [label="entropy = 0.0\nsamples = 14\nvalue = [0, 0, 0, 14]"] ;
228 -> 229 ;
230 [label="P1X <= 52.5\nentropy = 0.629\nsamples = 19\nvalue = [0, 3, 0, 16]"] ;
228 -> 230 ;
231 [label="entropy = 0.0\nsamples = 2\nvalue = [0, 2, 0, 0]"] ;
230 -> 231 ;
232 [label="BallY <= 138.0\nentropy = 0.323\nsamples = 17\nvalue = [0, 1, 0, 16]"] ;
230 -> 232 ;
233 [label="entropy = 0.0\nsamples = 8\nvalue = [0, 0, 0, 8]"] ;
232 -> 233 ;
234 [label="entropy = 0.503\nsamples = 9\nvalue = [0, 1, 0, 8]"] ;
232 -> 234 ;
235 [label="P2X <= 67.5\nentropy = 0.509\nsamples = 1157\nvalue = [0, 24, 81, 1052]"] ;
187 -> 235 ;
236 [label="BallX <= 29.0\nentropy = 0.466\nsamples = 1134\nvalue = [0, 24, 66, 1044]"] ;
235 -> 236 ;
237 [label="blockerX <= 62.5\nentropy = 0.733\nsamples = 397\nvalue = [0, 19, 39, 339]"] ;
236 -> 237 ;
238 [label="P1X <= 85.0\nentropy = 0.199\nsamples = 129\nvalue = [0, 4, 0, 125]"] ;
237 -> 238 ;
239 [label="blockerX <= 12.5\nentropy = 0.16\nsamples = 128\nvalue = [0, 3, 0, 125]"] ;
238 -> 239 ;
240 [label="blockerDir <= 0.0\nentropy = 0.523\nsamples = 17\nvalue = [0, 2, 0, 15]"] ;
239 -> 240 ;
241 [label="entropy = 0.0\nsamples = 15\nvalue = [0, 0, 0, 15]"] ;
240 -> 241 ;
242 [label="entropy = 0.0\nsamples = 2\nvalue = [0, 2, 0, 0]"] ;
240 -> 242 ;
243 [label="BallSpeedY <= -12.5\nentropy = 0.074\nsamples = 111\nvalue = [0, 1, 0, 110]"] ;
239 -> 243 ;
244 [label="entropy = 0.0\nsamples = 91\nvalue = [0, 0, 0, 91]"] ;
243 -> 244 ;
245 [label="P2X <= 37.5\nentropy = 0.286\nsamples = 20\nvalue = [0, 1, 0, 19]"] ;
243 -> 245 ;
246 [label="P2X <= 30.0\nentropy = 0.544\nsamples = 8\nvalue = [0, 1, 0, 7]"] ;
245 -> 246 ;
247 [label="entropy = 0.0\nsamples = 7\nvalue = [0, 0, 0, 7]"] ;
246 -> 247 ;
248 [label="entropy = 0.0\nsamples = 1\nvalue = [0, 1, 0, 0]"] ;
246 -> 248 ;
249 [label="entropy = 0.0\nsamples = 12\nvalue = [0, 0, 0, 12]"] ;
245 -> 249 ;
250 [label="entropy = 0.0\nsamples = 1\nvalue = [0, 1, 0, 0]"] ;
238 -> 250 ;
251 [label="blockerX <= 97.5\nentropy = 0.897\nsamples = 268\nvalue = [0, 15, 39, 214]"] ;
237 -> 251 ;
252 [label="BallY <= 100.0\nentropy = 1.389\nsamples = 89\nvalue = [0, 11, 31, 47]"] ;
251 -> 252 ;
253 [label="P2X <= 25.0\nentropy = 0.801\nsamples = 41\nvalue = [0, 10, 0, 31]"] ;
252 -> 253 ;
254 [label="entropy = 0.0\nsamples = 26\nvalue = [0, 0, 0, 26]"] ;
253 -> 254 ;
255 [label="BallX <= 27.0\nentropy = 0.918\nsamples = 15\nvalue = [0, 10, 0, 5]"] ;
253 -> 255 ;
256 [label="entropy = 0.0\nsamples = 10\nvalue = [0, 10, 0, 0]"] ;
255 -> 256 ;
257 [label="entropy = 0.0\nsamples = 5\nvalue = [0, 0, 0, 5]"] ;
255 -> 257 ;
258 [label="blockerX <= 77.5\nentropy = 1.052\nsamples = 48\nvalue = [0, 1, 31, 16]"] ;
252 -> 258 ;
259 [label="BallSpeedX <= 19.5\nentropy = 0.242\nsamples = 25\nvalue = [0, 0, 24, 1]"] ;
258 -> 259 ;
260 [label="entropy = 0.0\nsamples = 24\nvalue = [0, 0, 24, 0]"] ;
259 -> 260 ;
261 [label="entropy = 0.0\nsamples = 1\nvalue = [0, 0, 0, 1]"] ;
259 -> 261 ;
262 [label="P2X <= 27.5\nentropy = 1.121\nsamples = 23\nvalue = [0, 1, 7, 15]"] ;
258 -> 262 ;
263 [label="entropy = 0.0\nsamples = 7\nvalue = [0, 0, 7, 0]"] ;
262 -> 263 ;
264 [label="P1X <= 45.0\nentropy = 0.337\nsamples = 16\nvalue = [0, 1, 0, 15]"] ;
262 -> 264 ;
265 [label="entropy = 0.0\nsamples = 15\nvalue = [0, 0, 0, 15]"] ;
264 -> 265 ;
266 [label="entropy = 0.0\nsamples = 1\nvalue = [0, 1, 0, 0]"] ;
264 -> 266 ;
267 [label="P1X <= 62.5\nentropy = 0.416\nsamples = 179\nvalue = [0, 4, 8, 167]"] ;
251 -> 267 ;
268 [label="entropy = 0.0\nsamples = 100\nvalue = [0, 0, 0, 100]"] ;
267 -> 268 ;
269 [label="P2X <= 27.5\nentropy = 0.754\nsamples = 79\nvalue = [0, 4, 8, 67]"] ;
267 -> 269 ;
270 [label="blockerX <= 147.5\nentropy = 1.252\nsamples = 18\nvalue = [0, 1, 8, 9]"] ;
269 -> 270 ;
271 [label="entropy = 0.0\nsamples = 8\nvalue = [0, 0, 8, 0]"] ;
270 -> 271 ;
272 [label="P1X <= 77.5\nentropy = 0.469\nsamples = 10\nvalue = [0, 1, 0, 9]"] ;
270 -> 272 ;
273 [label="entropy = 0.0\nsamples = 9\nvalue = [0, 0, 0, 9]"] ;
272 -> 273 ;
274 [label="entropy = 0.0\nsamples = 1\nvalue = [0, 1, 0, 0]"] ;
272 -> 274 ;
275 [label="BallSpeedX <= 19.5\nentropy = 0.283\nsamples = 61\nvalue = [0, 3, 0, 58]"] ;
269 -> 275 ;
276 [label="P1X <= 72.5\nentropy = 0.124\nsamples = 59\nvalue = [0, 1, 0, 58]"] ;
275 -> 276 ;
277 [label="P2X <= 40.0\nentropy = 0.414\nsamples = 12\nvalue = [0, 1, 0, 11]"] ;
276 -> 277 ;
278 [label="entropy = 0.0\nsamples = 1\nvalue = [0, 1, 0, 0]"] ;
277 -> 278 ;
279 [label="entropy = 0.0\nsamples = 11\nvalue = [0, 0, 0, 11]"] ;
277 -> 279 ;
280 [label="entropy = 0.0\nsamples = 47\nvalue = [0, 0, 0, 47]"] ;
276 -> 280 ;
281 [label="entropy = 0.0\nsamples = 2\nvalue = [0, 2, 0, 0]"] ;
275 -> 281 ;
282 [label="BallX <= 38.5\nentropy = 0.285\nsamples = 737\nvalue = [0, 5, 27, 705]"] ;
236 -> 282 ;
283 [label="BallY <= 113.0\nentropy = 0.177\nsamples = 265\nvalue = [0, 4, 2, 259]"] ;
282 -> 283 ;
284 [label="P2X <= 57.5\nentropy = 0.144\nsamples = 195\nvalue = [0, 4, 0, 191]"] ;
283 -> 284 ;
285 [label="P1X <= 12.5\nentropy = 0.083\nsamples = 193\nvalue = [0, 2, 0, 191]"] ;
284 -> 285 ;
286 [label="entropy = 0.0\nsamples = 113\nvalue = [0, 0, 0, 113]"] ;
285 -> 286 ;
287 [label="BallSpeedX <= 13.5\nentropy = 0.169\nsamples = 80\nvalue = [0, 2, 0, 78]"] ;
285 -> 287 ;
288 [label="entropy = 0.0\nsamples = 1\nvalue = [0, 1, 0, 0]"] ;
287 -> 288 ;
289 [label="P2X <= 27.5\nentropy = 0.098\nsamples = 79\nvalue = [0, 1, 0, 78]"] ;
287 -> 289 ;
290 [label="P1X <= 50.0\nentropy = 0.503\nsamples = 9\nvalue = [0, 1, 0, 8]"] ;
289 -> 290 ;
291 [label="entropy = 0.0\nsamples = 8\nvalue = [0, 0, 0, 8]"] ;
290 -> 291 ;
292 [label="entropy = 0.0\nsamples = 1\nvalue = [0, 1, 0, 0]"] ;
290 -> 292 ;
293 [label="entropy = 0.0\nsamples = 70\nvalue = [0, 0, 0, 70]"] ;
289 -> 293 ;
294 [label="entropy = 0.0\nsamples = 2\nvalue = [0, 2, 0, 0]"] ;
284 -> 294 ;
295 [label="P2X <= 47.5\nentropy = 0.187\nsamples = 70\nvalue = [0, 0, 2, 68]"] ;
283 -> 295 ;
296 [label="entropy = 0.0\nsamples = 2\nvalue = [0, 0, 2, 0]"] ;
295 -> 296 ;
297 [label="entropy = 0.0\nsamples = 68\nvalue = [0, 0, 0, 68]"] ;
295 -> 297 ;
298 [label="blockerDir <= 0.0\nentropy = 0.321\nsamples = 472\nvalue = [0, 1, 25, 446]"] ;
282 -> 298 ;
299 [label="BallSpeedX <= 15.5\nentropy = 0.222\nsamples = 337\nvalue = [0, 1, 10, 326]"] ;
298 -> 299 ;
300 [label="blockerX <= 15.0\nentropy = 0.224\nsamples = 277\nvalue = [0, 0, 10, 267]"] ;
299 -> 300 ;
301 [label="entropy = 0.0\nsamples = 2\nvalue = [0, 0, 2, 0]"] ;
300 -> 301 ;
302 [label="P1X <= 12.5\nentropy = 0.19\nsamples = 275\nvalue = [0, 0, 8, 267]"] ;
300 -> 302 ;
303 [label="entropy = 0.0\nsamples = 97\nvalue = [0, 0, 0, 97]"] ;
302 -> 303 ;
304 [label="P1X <= 17.5\nentropy = 0.265\nsamples = 178\nvalue = [0, 0, 8, 170]"] ;
302 -> 304 ;
305 [label="blockerX <= 90.0\nentropy = 0.845\nsamples = 11\nvalue = [0, 0, 3, 8]"] ;
304 -> 305 ;
306 [label="entropy = 0.0\nsamples = 3\nvalue = [0, 0, 3, 0]"] ;
305 -> 306 ;
307 [label="entropy = 0.0\nsamples = 8\nvalue = [0, 0, 0, 8]"] ;
305 -> 307 ;
308 [label="P2X <= 52.5\nentropy = 0.194\nsamples = 167\nvalue = [0, 0, 5, 162]"] ;
304 -> 308 ;
309 [label="BallX <= 62.5\nentropy = 0.431\nsamples = 34\nvalue = [0, 0, 3, 31]"] ;
308 -> 309 ;
310 [label="P1X <= 25.0\nentropy = 0.33\nsamples = 33\nvalue = [0, 0, 2, 31]"] ;
309 -> 310 ;
311 [label="entropy = 0.0\nsamples = 1\nvalue = [0, 0, 1, 0]"] ;
310 -> 311 ;
312 [label="blockerX <= 147.5\nentropy = 0.201\nsamples = 32\nvalue = [0, 0, 1, 31]"] ;
310 -> 312 ;
313 [label="entropy = 0.0\nsamples = 20\nvalue = [0, 0, 0, 20]"] ;
312 -> 313 ;
314 [label="BallSpeedY <= -12.5\nentropy = 0.414\nsamples = 12\nvalue = [0, 0, 1, 11]"] ;
312 -> 314 ;
315 [label="entropy = 0.0\nsamples = 4\nvalue = [0, 0, 0, 4]"] ;
314 -> 315 ;
316 [label="entropy = 0.544\nsamples = 8\nvalue = [0, 0, 1, 7]"] ;
314 -> 316 ;
317 [label="entropy = 0.0\nsamples = 1\nvalue = [0, 0, 1, 0]"] ;
309 -> 317 ;
318 [label="P1X <= 22.5\nentropy = 0.113\nsamples = 133\nvalue = [0, 0, 2, 131]"] ;
308 -> 318 ;
319 [label="P2X <= 57.5\nentropy = 0.267\nsamples = 44\nvalue = [0, 0, 2, 42]"] ;
318 -> 319 ;
320 [label="entropy = 0.0\nsamples = 1\nvalue = [0, 0, 1, 0]"] ;
319 -> 320 ;
321 [label="blockerX <= 57.5\nentropy = 0.159\nsamples = 43\nvalue = [0, 0, 1, 42]"] ;
319 -> 321 ;
322 [label="entropy = 0.414\nsamples = 12\nvalue = [0, 0, 1, 11]"] ;
321 -> 322 ;
323 [label="entropy = 0.0\nsamples = 31\nvalue = [0, 0, 0, 31]"] ;
321 -> 323 ;
324 [label="entropy = 0.0\nsamples = 89\nvalue = [0, 0, 0, 89]"] ;
318 -> 324 ;
325 [label="blockerX <= 47.5\nentropy = 0.122\nsamples = 60\nvalue = [0, 1, 0, 59]"] ;
299 -> 325 ;
326 [label="BallSpeedY <= -18.0\nentropy = 0.544\nsamples = 8\nvalue = [0, 1, 0, 7]"] ;
325 -> 326 ;
327 [label="entropy = 0.0\nsamples = 7\nvalue = [0, 0, 0, 7]"] ;
326 -> 327 ;
328 [label="entropy = 0.0\nsamples = 1\nvalue = [0, 1, 0, 0]"] ;
326 -> 328 ;
329 [label="entropy = 0.0\nsamples = 52\nvalue = [0, 0, 0, 52]"] ;
325 -> 329 ;
330 [label="BallSpeedY <= -12.5\nentropy = 0.503\nsamples = 135\nvalue = [0, 0, 15, 120]"] ;
298 -> 330 ;
331 [label="P1X <= 30.0\nentropy = 0.462\nsamples = 133\nvalue = [0, 0, 13, 120]"] ;
330 -> 331 ;
332 [label="BallX <= 58.0\nentropy = 0.141\nsamples = 50\nvalue = [0, 0, 1, 49]"] ;
331 -> 332 ;
333 [label="entropy = 0.0\nsamples = 41\nvalue = [0, 0, 0, 41]"] ;
332 -> 333 ;
334 [label="BallY <= 88.5\nentropy = 0.503\nsamples = 9\nvalue = [0, 0, 1, 8]"] ;
332 -> 334 ;
335 [label="entropy = 0.0\nsamples = 1\nvalue = [0, 0, 1, 0]"] ;
334 -> 335 ;
336 [label="entropy = 0.0\nsamples = 8\nvalue = [0, 0, 0, 8]"] ;
334 -> 336 ;
337 [label="BallY <= 112.0\nentropy = 0.596\nsamples = 83\nvalue = [0, 0, 12, 71]"] ;
331 -> 337 ;
338 [label="P2X <= 37.5\nentropy = 0.507\nsamples = 80\nvalue = [0, 0, 9, 71]"] ;
337 -> 338 ;
339 [label="entropy = 0.0\nsamples = 2\nvalue = [0, 0, 2, 0]"] ;
338 -> 339 ;
340 [label="BallSpeedX <= 19.0\nentropy = 0.436\nsamples = 78\nvalue = [0, 0, 7, 71]"] ;
338 -> 340 ;
341 [label="P1X <= 77.5\nentropy = 0.493\nsamples = 65\nvalue = [0, 0, 7, 58]"] ;
340 -> 341 ;
342 [label="P1X <= 52.5\nentropy = 0.563\nsamples = 53\nvalue = [0, 0, 7, 46]"] ;
341 -> 342 ;
343 [label="P1X <= 42.5\nentropy = 0.365\nsamples = 43\nvalue = [0, 0, 3, 40]"] ;
342 -> 343 ;
344 [label="BallX <= 52.5\nentropy = 0.575\nsamples = 22\nvalue = [0, 0, 3, 19]"] ;
343 -> 344 ;
345 [label="entropy = 0.0\nsamples = 2\nvalue = [0, 0, 2, 0]"] ;
344 -> 345 ;
346 [label="BallY <= 93.0\nentropy = 0.286\nsamples = 20\nvalue = [0, 0, 1, 19]"] ;
344 -> 346 ;
347 [label="entropy = 0.0\nsamples = 13\nvalue = [0, 0, 0, 13]"] ;
346 -> 347 ;
348 [label="entropy = 0.592\nsamples = 7\nvalue = [0, 0, 1, 6]"] ;
346 -> 348 ;
349 [label="entropy = 0.0\nsamples = 21\nvalue = [0, 0, 0, 21]"] ;
343 -> 349 ;
350 [label="P2X <= 57.5\nentropy = 0.971\nsamples = 10\nvalue = [0, 0, 4, 6]"] ;
342 -> 350 ;
351 [label="BallY <= 83.5\nentropy = 0.592\nsamples = 7\nvalue = [0, 0, 1, 6]"] ;
350 -> 351 ;
352 [label="entropy = 0.0\nsamples = 1\nvalue = [0, 0, 1, 0]"] ;
351 -> 352 ;
353 [label="entropy = 0.0\nsamples = 6\nvalue = [0, 0, 0, 6]"] ;
351 -> 353 ;
354 [label="entropy = 0.0\nsamples = 3\nvalue = [0, 0, 3, 0]"] ;
350 -> 354 ;
355 [label="entropy = 0.0\nsamples = 12\nvalue = [0, 0, 0, 12]"] ;
341 -> 355 ;
356 [label="entropy = 0.0\nsamples = 13\nvalue = [0, 0, 0, 13]"] ;
340 -> 356 ;
357 [label="entropy = 0.0\nsamples = 3\nvalue = [0, 0, 3, 0]"] ;
337 -> 357 ;
358 [label="entropy = 0.0\nsamples = 2\nvalue = [0, 0, 2, 0]"] ;
330 -> 358 ;
359 [label="blockerX <= 52.5\nentropy = 0.932\nsamples = 23\nvalue = [0, 0, 15, 8]"] ;
235 -> 359 ;
360 [label="entropy = 0.0\nsamples = 14\nvalue = [0, 0, 14, 0]"] ;
359 -> 360 ;
361 [label="BallSpeedX <= 16.0\nentropy = 0.503\nsamples = 9\nvalue = [0, 0, 1, 8]"] ;
359 -> 361 ;
362 [label="entropy = 0.0\nsamples = 7\nvalue = [0, 0, 0, 7]"] ;
361 -> 362 ;
363 [label="blockerX <= 130.0\nentropy = 1.0\nsamples = 2\nvalue = [0, 0, 1, 1]"] ;
361 -> 363 ;
364 [label="entropy = 0.0\nsamples = 1\nvalue = [0, 0, 1, 0]"] ;
363 -> 364 ;
365 [label="entropy = 0.0\nsamples = 1\nvalue = [0, 0, 0, 1]"] ;
363 -> 365 ;
366 [label="BallY <= 152.5\nentropy = 0.906\nsamples = 173\nvalue = [0, 5, 133, 35]"] ;
186 -> 366 ;
367 [label="P1X <= 40.0\nentropy = 1.157\nsamples = 103\nvalue = [0, 5, 65, 33]"] ;
366 -> 367 ;
368 [label="P2X <= 57.5\nentropy = 0.525\nsamples = 59\nvalue = [0, 0, 52, 7]"] ;
367 -> 368 ;
369 [label="P2X <= 52.5\nentropy = 0.887\nsamples = 23\nvalue = [0, 0, 16, 7]"] ;
368 -> 369 ;
370 [label="P2X <= 47.5\nentropy = 0.503\nsamples = 18\nvalue = [0, 0, 16, 2]"] ;
369 -> 370 ;
371 [label="entropy = 0.0\nsamples = 1\nvalue = [0, 0, 0, 1]"] ;
370 -> 371 ;
372 [label="BallSpeedX <= 14.5\nentropy = 0.323\nsamples = 17\nvalue = [0, 0, 16, 1]"] ;
370 -> 372 ;
373 [label="entropy = 0.0\nsamples = 16\nvalue = [0, 0, 16, 0]"] ;
372 -> 373 ;
374 [label="entropy = 0.0\nsamples = 1\nvalue = [0, 0, 0, 1]"] ;
372 -> 374 ;
375 [label="entropy = 0.0\nsamples = 5\nvalue = [0, 0, 0, 5]"] ;
369 -> 375 ;
376 [label="entropy = 0.0\nsamples = 36\nvalue = [0, 0, 36, 0]"] ;
368 -> 376 ;
377 [label="BallX <= 22.0\nentropy = 1.325\nsamples = 44\nvalue = [0, 5, 13, 26]"] ;
367 -> 377 ;
378 [label="blockerDir <= 0.0\nentropy = 0.637\nsamples = 31\nvalue = [0, 5, 0, 26]"] ;
377 -> 378 ;
379 [label="entropy = 0.0\nsamples = 18\nvalue = [0, 0, 0, 18]"] ;
378 -> 379 ;
380 [label="BallSpeedX <= 12.5\nentropy = 0.961\nsamples = 13\nvalue = [0, 5, 0, 8]"] ;
378 -> 380 ;
381 [label="entropy = 0.0\nsamples = 6\nvalue = [0, 0, 0, 6]"] ;
380 -> 381 ;
382 [label="P1X <= 62.5\nentropy = 0.863\nsamples = 7\nvalue = [0, 5, 0, 2]"] ;
380 -> 382 ;
383 [label="BallSpeedY <= -16.0\nentropy = 0.918\nsamples = 3\nvalue = [0, 1, 0, 2]"] ;
382 -> 383 ;
384 [label="entropy = 0.0\nsamples = 2\nvalue = [0, 0, 0, 2]"] ;
383 -> 384 ;
385 [label="entropy = 0.0\nsamples = 1\nvalue = [0, 1, 0, 0]"] ;
383 -> 385 ;
386 [label="entropy = 0.0\nsamples = 4\nvalue = [0, 4, 0, 0]"] ;
382 -> 386 ;
387 [label="entropy = 0.0\nsamples = 13\nvalue = [0, 0, 13, 0]"] ;
377 -> 387 ;
388 [label="blockerX <= 32.5\nentropy = 0.187\nsamples = 70\nvalue = [0, 0, 68, 2]"] ;
366 -> 388 ;
389 [label="entropy = 0.0\nsamples = 2\nvalue = [0, 0, 0, 2]"] ;
388 -> 389 ;
390 [label="entropy = 0.0\nsamples = 68\nvalue = [0, 0, 68, 0]"] ;
388 -> 390 ;
391 [label="P1X <= 47.5\nentropy = 0.98\nsamples = 6898\nvalue = [0, 2290, 56, 4552]"] ;
183 -> 391 ;
392 [label="BallSpeedY <= -16.5\nentropy = 0.999\nsamples = 2833\nvalue = [0, 1573, 2, 1258]"] ;
391 -> 392 ;
393 [label="BallX <= 49.0\nentropy = 0.837\nsamples = 1158\nvalue = [0, 849, 0, 309]"] ;
392 -> 393 ;
394 [label="BallY <= 136.0\nentropy = 0.96\nsamples = 712\nvalue = [0, 439, 0, 273]"] ;
393 -> 394 ;
395 [label="BallY <= 121.5\nentropy = 0.484\nsamples = 430\nvalue = [0, 385, 0, 45]"] ;
394 -> 395 ;
396 [label="BallSpeedX <= -21.5\nentropy = 0.116\nsamples = 257\nvalue = [0, 253, 0, 4]"] ;
395 -> 396 ;
397 [label="blockerX <= 130.0\nentropy = 0.946\nsamples = 11\nvalue = [0, 7, 0, 4]"] ;
396 -> 397 ;
398 [label="entropy = 0.0\nsamples = 4\nvalue = [0, 0, 0, 4]"] ;
397 -> 398 ;
399 [label="entropy = 0.0\nsamples = 7\nvalue = [0, 7, 0, 0]"] ;
397 -> 399 ;
400 [label="entropy = 0.0\nsamples = 246\nvalue = [0, 246, 0, 0]"] ;
396 -> 400 ;
401 [label="P2X <= 32.5\nentropy = 0.79\nsamples = 173\nvalue = [0, 132, 0, 41]"] ;
395 -> 401 ;
402 [label="BallX <= 18.0\nentropy = 0.998\nsamples = 87\nvalue = [0, 46, 0, 41]"] ;
401 -> 402 ;
403 [label="P1X <= 2.5\nentropy = 0.632\nsamples = 44\nvalue = [0, 7, 0, 37]"] ;
402 -> 403 ;
404 [label="BallSpeedY <= -19.5\nentropy = 0.996\nsamples = 13\nvalue = [0, 7, 0, 6]"] ;
403 -> 404 ;
405 [label="entropy = 0.0\nsamples = 6\nvalue = [0, 0, 0, 6]"] ;
404 -> 405 ;
406 [label="entropy = 0.0\nsamples = 7\nvalue = [0, 7, 0, 0]"] ;
404 -> 406 ;
407 [label="entropy = 0.0\nsamples = 31\nvalue = [0, 0, 0, 31]"] ;
403 -> 407 ;
408 [label="BallSpeedX <= -21.0\nentropy = 0.446\nsamples = 43\nvalue = [0, 39, 0, 4]"] ;
402 -> 408 ;
409 [label="entropy = 0.0\nsamples = 4\nvalue = [0, 0, 0, 4]"] ;
408 -> 409 ;
410 [label="entropy = 0.0\nsamples = 39\nvalue = [0, 39, 0, 0]"] ;
408 -> 410 ;
411 [label="entropy = 0.0\nsamples = 86\nvalue = [0, 86, 0, 0]"] ;
401 -> 411 ;
412 [label="P1X <= 22.5\nentropy = 0.705\nsamples = 282\nvalue = [0, 54, 0, 228]"] ;
394 -> 412 ;
413 [label="BallY <= 152.0\nentropy = 0.982\nsamples = 114\nvalue = [0, 48, 0, 66]"] ;
412 -> 413 ;
414 [label="BallY <= 146.0\nentropy = 0.966\nsamples = 69\nvalue = [0, 42, 0, 27]"] ;
413 -> 414 ;
415 [label="P2X <= 42.5\nentropy = 0.91\nsamples = 40\nvalue = [0, 13, 0, 27]"] ;
414 -> 415 ;
416 [label="BallX <= 29.5\nentropy = 0.469\nsamples = 30\nvalue = [0, 3, 0, 27]"] ;
415 -> 416 ;
417 [label="entropy = 0.0\nsamples = 27\nvalue = [0, 0, 0, 27]"] ;
416 -> 417 ;
418 [label="entropy = 0.0\nsamples = 3\nvalue = [0, 3, 0, 0]"] ;
416 -> 418 ;
419 [label="entropy = 0.0\nsamples = 10\nvalue = [0, 10, 0, 0]"] ;
415 -> 419 ;
420 [label="entropy = 0.0\nsamples = 29\nvalue = [0, 29, 0, 0]"] ;
414 -> 420 ;
421 [label="BallY <= 164.0\nentropy = 0.567\nsamples = 45\nvalue = [0, 6, 0, 39]"] ;
413 -> 421 ;
422 [label="entropy = 0.0\nsamples = 29\nvalue = [0, 0, 0, 29]"] ;
421 -> 422 ;
423 [label="BallX <= 33.0\nentropy = 0.954\nsamples = 16\nvalue = [0, 6, 0, 10]"] ;
421 -> 423 ;
424 [label="entropy = 0.0\nsamples = 10\nvalue = [0, 0, 0, 10]"] ;
423 -> 424 ;
425 [label="entropy = 0.0\nsamples = 6\nvalue = [0, 6, 0, 0]"] ;
423 -> 425 ;
426 [label="BallX <= 45.5\nentropy = 0.222\nsamples = 168\nvalue = [0, 6, 0, 162]"] ;
412 -> 426 ;
427 [label="entropy = 0.0\nsamples = 162\nvalue = [0, 0, 0, 162]"] ;
426 -> 427 ;
428 [label="entropy = 0.0\nsamples = 6\nvalue = [0, 6, 0, 0]"] ;
426 -> 428 ;
429 [label="P2X <= 37.5\nentropy = 0.405\nsamples = 446\nvalue = [0, 410, 0, 36]"] ;
393 -> 429 ;
430 [label="P1X <= 2.5\nentropy = 0.145\nsamples = 387\nvalue = [0, 379, 0, 8]"] ;
429 -> 430 ;
431 [label="blockerX <= 117.5\nentropy = 0.932\nsamples = 23\nvalue = [0, 15, 0, 8]"] ;
430 -> 431 ;
432 [label="entropy = 0.0\nsamples = 15\nvalue = [0, 15, 0, 0]"] ;
431 -> 432 ;
433 [label="entropy = 0.0\nsamples = 8\nvalue = [0, 0, 0, 8]"] ;
431 -> 433 ;
434 [label="entropy = 0.0\nsamples = 364\nvalue = [0, 364, 0, 0]"] ;
430 -> 434 ;
435 [label="blockerDir <= 0.0\nentropy = 0.998\nsamples = 59\nvalue = [0, 31, 0, 28]"] ;
429 -> 435 ;
436 [label="entropy = 0.0\nsamples = 31\nvalue = [0, 31, 0, 0]"] ;
435 -> 436 ;
437 [label="entropy = 0.0\nsamples = 28\nvalue = [0, 0, 0, 28]"] ;
435 -> 437 ;
438 [label="P1X <= 12.5\nentropy = 0.999\nsamples = 1675\nvalue = [0, 724, 2, 949]"] ;
392 -> 438 ;
439 [label="BallX <= 0.5\nentropy = 0.894\nsamples = 907\nvalue = [0, 273, 1, 633]"] ;
438 -> 439 ;
440 [label="BallSpeedY <= -14.5\nentropy = 0.794\nsamples = 209\nvalue = [0, 159, 0, 50]"] ;
439 -> 440 ;
441 [label="blockerDir <= 0.0\nentropy = 0.971\nsamples = 55\nvalue = [0, 22, 0, 33]"] ;
440 -> 441 ;
442 [label="P2X <= 17.5\nentropy = 0.964\nsamples = 36\nvalue = [0, 22, 0, 14]"] ;
441 -> 442 ;
443 [label="entropy = 0.0\nsamples = 4\nvalue = [0, 0, 0, 4]"] ;
442 -> 443 ;
444 [label="BallY <= 128.5\nentropy = 0.896\nsamples = 32\nvalue = [0, 22, 0, 10]"] ;
442 -> 444 ;
445 [label="blockerX <= 87.5\nentropy = 0.323\nsamples = 17\nvalue = [0, 16, 0, 1]"] ;
444 -> 445 ;
446 [label="entropy = 0.0\nsamples = 13\nvalue = [0, 13, 0, 0]"] ;
445 -> 446 ;
447 [label="entropy = 0.811\nsamples = 4\nvalue = [0, 3, 0, 1]"] ;
445 -> 447 ;
448 [label="P2X <= 47.5\nentropy = 0.971\nsamples = 15\nvalue = [0, 6, 0, 9]"] ;
444 -> 448 ;
449 [label="entropy = 0.0\nsamples = 9\nvalue = [0, 0, 0, 9]"] ;
448 -> 449 ;
450 [label="entropy = 0.0\nsamples = 6\nvalue = [0, 6, 0, 0]"] ;
448 -> 450 ;
451 [label="entropy = 0.0\nsamples = 19\nvalue = [0, 0, 0, 19]"] ;
441 -> 451 ;
452 [label="P2X <= 22.5\nentropy = 0.501\nsamples = 154\nvalue = [0, 137, 0, 17]"] ;
440 -> 452 ;
453 [label="BallY <= 111.5\nentropy = 0.848\nsamples = 51\nvalue = [0, 37, 0, 14]"] ;
452 -> 453 ;
454 [label="entropy = 0.0\nsamples = 37\nvalue = [0, 37, 0, 0]"] ;
453 -> 454 ;
455 [label="entropy = 0.0\nsamples = 14\nvalue = [0, 0, 0, 14]"] ;
453 -> 455 ;
456 [label="BallY <= 122.0\nentropy = 0.19\nsamples = 103\nvalue = [0, 100, 0, 3]"] ;
452 -> 456 ;
457 [label="entropy = 0.0\nsamples = 42\nvalue = [0, 42, 0, 0]"] ;
456 -> 457 ;
458 [label="BallY <= 125.0\nentropy = 0.283\nsamples = 61\nvalue = [0, 58, 0, 3]"] ;
456 -> 458 ;
459 [label="entropy = 0.0\nsamples = 1\nvalue = [0, 0, 0, 1]"] ;
458 -> 459 ;
460 [label="P2X <= 32.5\nentropy = 0.211\nsamples = 60\nvalue = [0, 58, 0, 2]"] ;
458 -> 460 ;
461 [label="P2X <= 27.5\nentropy = 0.811\nsamples = 8\nvalue = [0, 6, 0, 2]"] ;
460 -> 461 ;
462 [label="entropy = 0.0\nsamples = 6\nvalue = [0, 6, 0, 0]"] ;
461 -> 462 ;
463 [label="entropy = 0.0\nsamples = 2\nvalue = [0, 0, 0, 2]"] ;
461 -> 463 ;
464 [label="entropy = 0.0\nsamples = 52\nvalue = [0, 52, 0, 0]"] ;
460 -> 464 ;
465 [label="blockerX <= 87.5\nentropy = 0.657\nsamples = 698\nvalue = [0, 114, 1, 583]"] ;
439 -> 465 ;
466 [label="P2X <= 47.5\nentropy = 0.353\nsamples = 510\nvalue = [0, 34, 0, 476]"] ;
465 -> 466 ;
467 [label="BallX <= 75.0\nentropy = 0.24\nsamples = 481\nvalue = [0, 19, 0, 462]"] ;
466 -> 467 ;
468 [label="BallY <= 106.5\nentropy = 0.159\nsamples = 473\nvalue = [0, 11, 0, 462]"] ;
467 -> 468 ;
469 [label="entropy = 0.0\nsamples = 6\nvalue = [0, 6, 0, 0]"] ;
468 -> 469 ;
470 [label="P1X <= 7.5\nentropy = 0.085\nsamples = 467\nvalue = [0, 5, 0, 462]"] ;
468 -> 470 ;
471 [label="entropy = 0.0\nsamples = 377\nvalue = [0, 0, 0, 377]"] ;
470 -> 471 ;
472 [label="P2X <= 42.5\nentropy = 0.31\nsamples = 90\nvalue = [0, 5, 0, 85]"] ;
470 -> 472 ;
473 [label="blockerX <= 82.5\nentropy = 0.158\nsamples = 87\nvalue = [0, 2, 0, 85]"] ;
472 -> 473 ;
474 [label="entropy = 0.0\nsamples = 78\nvalue = [0, 0, 0, 78]"] ;
473 -> 474 ;
475 [label="blockerDir <= 0.0\nentropy = 0.764\nsamples = 9\nvalue = [0, 2, 0, 7]"] ;
473 -> 475 ;
476 [label="entropy = 0.0\nsamples = 2\nvalue = [0, 2, 0, 0]"] ;
475 -> 476 ;
477 [label="entropy = 0.0\nsamples = 7\nvalue = [0, 0, 0, 7]"] ;
475 -> 477 ;
478 [label="entropy = 0.0\nsamples = 3\nvalue = [0, 3, 0, 0]"] ;
472 -> 478 ;
479 [label="entropy = 0.0\nsamples = 8\nvalue = [0, 8, 0, 0]"] ;
467 -> 479 ;
480 [label="BallX <= 13.5\nentropy = 0.999\nsamples = 29\nvalue = [0, 15, 0, 14]"] ;
466 -> 480 ;
481 [label="entropy = 0.0\nsamples = 14\nvalue = [0, 0, 0, 14]"] ;
480 -> 481 ;
482 [label="entropy = 0.0\nsamples = 15\nvalue = [0, 15, 0, 0]"] ;
480 -> 482 ;
483 [label="P2X <= 12.5\nentropy = 1.028\nsamples = 188\nvalue = [0, 80, 1, 107]"] ;
465 -> 483 ;
484 [label="entropy = 0.0\nsamples = 66\nvalue = [0, 0, 0, 66]"] ;
483 -> 484 ;
485 [label="BallX <= 45.5\nentropy = 0.985\nsamples = 122\nvalue = [0, 80, 1, 41]"] ;
483 -> 485 ;
486 [label="BallSpeedY <= -15.5\nentropy = 1.0\nsamples = 82\nvalue = [0, 41, 0, 41]"] ;
485 -> 486 ;
487 [label="entropy = 0.0\nsamples = 22\nvalue = [0, 0, 0, 22]"] ;
486 -> 487 ;
488 [label="BallY <= 169.0\nentropy = 0.901\nsamples = 60\nvalue = [0, 41, 0, 19]"] ;
486 -> 488 ;
489 [label="blockerX <= 110.0\nentropy = 0.496\nsamples = 46\nvalue = [0, 41, 0, 5]"] ;
488 -> 489 ;
490 [label="entropy = 0.0\nsamples = 23\nvalue = [0, 23, 0, 0]"] ;
489 -> 490 ;
491 [label="BallSpeedY <= -13.5\nentropy = 0.755\nsamples = 23\nvalue = [0, 18, 0, 5]"] ;
489 -> 491 ;
492 [label="entropy = 0.0\nsamples = 5\nvalue = [0, 0, 0, 5]"] ;
491 -> 492 ;
493 [label="entropy = 0.0\nsamples = 18\nvalue = [0, 18, 0, 0]"] ;
491 -> 493 ;
494 [label="entropy = 0.0\nsamples = 14\nvalue = [0, 0, 0, 14]"] ;
488 -> 494 ;
495 [label="blockerDir <= 0.0\nentropy = 0.169\nsamples = 40\nvalue = [0, 39, 1, 0]"] ;
485 -> 495 ;
496 [label="entropy = 0.0\nsamples = 39\nvalue = [0, 39, 0, 0]"] ;
495 -> 496 ;
497 [label="entropy = 0.0\nsamples = 1\nvalue = [0, 0, 1, 0]"] ;
495 -> 497 ;
498 [label="P2X <= 12.5\nentropy = 0.991\nsamples = 768\nvalue = [0, 451, 1, 316]"] ;
438 -> 498 ;
499 [label="entropy = 0.0\nsamples = 122\nvalue = [0, 122, 0, 0]"] ;
498 -> 499 ;
500 [label="BallSpeedX <= -17.0\nentropy = 1.015\nsamples = 646\nvalue = [0, 329, 1, 316]"] ;
498 -> 500 ;
501 [label="entropy = 0.0\nsamples = 54\nvalue = [0, 0, 0, 54]"] ;
500 -> 501 ;
502 [label="blockerX <= 152.5\nentropy = 1.007\nsamples = 592\nvalue = [0, 329, 1, 262]"] ;
500 -> 502 ;
503 [label="BallY <= 142.5\nentropy = 0.999\nsamples = 478\nvalue = [0, 232, 0, 246]"] ;
502 -> 503 ;
504 [label="BallX <= 57.5\nentropy = 0.755\nsamples = 175\nvalue = [0, 137, 0, 38]"] ;
503 -> 504 ;
505 [label="BallSpeedX <= -15.0\nentropy = 0.445\nsamples = 151\nvalue = [0, 137, 0, 14]"] ;
504 -> 505 ;
506 [label="entropy = 0.0\nsamples = 7\nvalue = [0, 0, 0, 7]"] ;
505 -> 506 ;
507 [label="BallY <= 125.0\nentropy = 0.28\nsamples = 144\nvalue = [0, 137, 0, 7]"] ;
505 -> 507 ;
508 [label="entropy = 0.0\nsamples = 83\nvalue = [0, 83, 0, 0]"] ;
507 -> 508 ;
509 [label="P2X <= 22.5\nentropy = 0.514\nsamples = 61\nvalue = [0, 54, 0, 7]"] ;
507 -> 509 ;
510 [label="entropy = 0.0\nsamples = 4\nvalue = [0, 0, 0, 4]"] ;
509 -> 510 ;
511 [label="BallX <= 1.5\nentropy = 0.297\nsamples = 57\nvalue = [0, 54, 0, 3]"] ;
509 -> 511 ;
512 [label="P2X <= 32.5\nentropy = 0.75\nsamples = 14\nvalue = [0, 11, 0, 3]"] ;
511 -> 512 ;
513 [label="entropy = 0.0\nsamples = 10\nvalue = [0, 10, 0, 0]"] ;
512 -> 513 ;
514 [label="P2X <= 45.0\nentropy = 0.811\nsamples = 4\nvalue = [0, 1, 0, 3]"] ;
512 -> 514 ;
515 [label="entropy = 0.0\nsamples = 3\nvalue = [0, 0, 0, 3]"] ;
514 -> 515 ;
516 [label="entropy = 0.0\nsamples = 1\nvalue = [0, 1, 0, 0]"] ;
514 -> 516 ;
517 [label="entropy = 0.0\nsamples = 43\nvalue = [0, 43, 0, 0]"] ;
511 -> 517 ;
518 [label="entropy = 0.0\nsamples = 24\nvalue = [0, 0, 0, 24]"] ;
504 -> 518 ;
519 [label="BallX <= 37.0\nentropy = 0.897\nsamples = 303\nvalue = [0, 95, 0, 208]"] ;
503 -> 519 ;
520 [label="P2X <= 62.5\nentropy = 0.659\nsamples = 205\nvalue = [0, 35, 0, 170]"] ;
519 -> 520 ;
521 [label="blockerDir <= 0.0\nentropy = 0.5\nsamples = 191\nvalue = [0, 21, 0, 170]"] ;
520 -> 521 ;
522 [label="blockerX <= 95.0\nentropy = 0.3\nsamples = 150\nvalue = [0, 8, 0, 142]"] ;
521 -> 522 ;
523 [label="blockerX <= 87.5\nentropy = 0.598\nsamples = 55\nvalue = [0, 8, 0, 47]"] ;
522 -> 523 ;
524 [label="BallSpeedY <= -14.0\nentropy = 0.397\nsamples = 51\nvalue = [0, 4, 0, 47]"] ;
523 -> 524 ;
525 [label="blockerX <= 40.0\nentropy = 0.845\nsamples = 11\nvalue = [0, 3, 0, 8]"] ;
524 -> 525 ;
526 [label="entropy = 0.0\nsamples = 8\nvalue = [0, 0, 0, 8]"] ;
525 -> 526 ;
527 [label="entropy = 0.0\nsamples = 3\nvalue = [0, 3, 0, 0]"] ;
525 -> 527 ;
528 [label="BallX <= 26.5\nentropy = 0.169\nsamples = 40\nvalue = [0, 1, 0, 39]"] ;
524 -> 528 ;
529 [label="entropy = 0.0\nsamples = 39\nvalue = [0, 0, 0, 39]"] ;
528 -> 529 ;
530 [label="entropy = 0.0\nsamples = 1\nvalue = [0, 1, 0, 0]"] ;
528 -> 530 ;
531 [label="entropy = 0.0\nsamples = 4\nvalue = [0, 4, 0, 0]"] ;
523 -> 531 ;
532 [label="entropy = 0.0\nsamples = 95\nvalue = [0, 0, 0, 95]"] ;
522 -> 532 ;
533 [label="BallSpeedY <= -13.5\nentropy = 0.901\nsamples = 41\nvalue = [0, 13, 0, 28]"] ;
521 -> 533 ;
534 [label="entropy = 0.0\nsamples = 26\nvalue = [0, 0, 0, 26]"] ;
533 -> 534 ;
535 [label="blockerX <= 127.5\nentropy = 0.567\nsamples = 15\nvalue = [0, 13, 0, 2]"] ;
533 -> 535 ;
536 [label="entropy = 0.0\nsamples = 13\nvalue = [0, 13, 0, 0]"] ;
535 -> 536 ;
537 [label="entropy = 0.0\nsamples = 2\nvalue = [0, 0, 0, 2]"] ;
535 -> 537 ;
538 [label="entropy = 0.0\nsamples = 14\nvalue = [0, 14, 0, 0]"] ;
520 -> 538 ;
539 [label="BallSpeedX <= -13.5\nentropy = 0.963\nsamples = 98\nvalue = [0, 60, 0, 38]"] ;
519 -> 539 ;
540 [label="blockerDir <= 0.0\nentropy = 0.985\nsamples = 63\nvalue = [0, 27, 0, 36]"] ;
539 -> 540 ;
541 [label="BallX <= 59.0\nentropy = 0.888\nsamples = 36\nvalue = [0, 25, 0, 11]"] ;
540 -> 541 ;
542 [label="BallY <= 170.0\nentropy = 0.964\nsamples = 18\nvalue = [0, 7, 0, 11]"] ;
541 -> 542 ;
543 [label="entropy = 0.0\nsamples = 6\nvalue = [0, 6, 0, 0]"] ;
542 -> 543 ;
544 [label="BallX <= 40.5\nentropy = 0.414\nsamples = 12\nvalue = [0, 1, 0, 11]"] ;
542 -> 544 ;
545 [label="entropy = 0.0\nsamples = 1\nvalue = [0, 1, 0, 0]"] ;
544 -> 545 ;
546 [label="entropy = 0.0\nsamples = 11\nvalue = [0, 0, 0, 11]"] ;
544 -> 546 ;
547 [label="entropy = 0.0\nsamples = 18\nvalue = [0, 18, 0, 0]"] ;
541 -> 547 ;
548 [label="BallSpeedY <= -15.5\nentropy = 0.381\nsamples = 27\nvalue = [0, 2, 0, 25]"] ;
540 -> 548 ;
549 [label="entropy = 0.0\nsamples = 2\nvalue = [0, 2, 0, 0]"] ;
548 -> 549 ;
550 [label="entropy = 0.0\nsamples = 25\nvalue = [0, 0, 0, 25]"] ;
548 -> 550 ;
551 [label="P2X <= 22.5\nentropy = 0.316\nsamples = 35\nvalue = [0, 33, 0, 2]"] ;
539 -> 551 ;
552 [label="entropy = 0.0\nsamples = 2\nvalue = [0, 0, 0, 2]"] ;
551 -> 552 ;
553 [label="entropy = 0.0\nsamples = 33\nvalue = [0, 33, 0, 0]"] ;
551 -> 553 ;
554 [label="P2X <= 50.0\nentropy = 0.656\nsamples = 114\nvalue = [0, 97, 1, 16]"] ;
502 -> 554 ;
555 [label="entropy = 0.0\nsamples = 97\nvalue = [0, 97, 0, 0]"] ;
554 -> 555 ;
556 [label="P2X <= 62.5\nentropy = 0.323\nsamples = 17\nvalue = [0, 0, 1, 16]"] ;
554 -> 556 ;
557 [label="entropy = 0.0\nsamples = 16\nvalue = [0, 0, 0, 16]"] ;
556 -> 557 ;
558 [label="entropy = 0.0\nsamples = 1\nvalue = [0, 0, 1, 0]"] ;
556 -> 558 ;
559 [label="BallSpeedX <= 0.0\nentropy = 0.77\nsamples = 4065\nvalue = [0, 717, 54, 3294]"] ;
391 -> 559 ;
560 [label="BallX <= 164.0\nentropy = 0.692\nsamples = 3892\nvalue = [0, 555, 53, 3284]"] ;
559 -> 560 ;
561 [label="BallX <= 74.5\nentropy = 0.59\nsamples = 3700\nvalue = [0, 459, 21, 3220]"] ;
560 -> 561 ;
562 [label="BallY <= 116.0\nentropy = 0.88\nsamples = 1022\nvalue = [0, 297, 1, 724]"] ;
561 -> 562 ;
563 [label="BallSpeedY <= -18.5\nentropy = 0.407\nsamples = 467\nvalue = [0, 38, 0, 429]"] ;
562 -> 563 ;
564 [label="blockerX <= 157.5\nentropy = 0.48\nsamples = 29\nvalue = [0, 26, 0, 3]"] ;
563 -> 564 ;
565 [label="entropy = 0.0\nsamples = 26\nvalue = [0, 26, 0, 0]"] ;
564 -> 565 ;
566 [label="entropy = 0.0\nsamples = 3\nvalue = [0, 0, 0, 3]"] ;
564 -> 566 ;
567 [label="BallX <= 36.5\nentropy = 0.181\nsamples = 438\nvalue = [0, 12, 0, 426]"] ;
563 -> 567 ;
568 [label="BallY <= 108.0\nentropy = 0.959\nsamples = 21\nvalue = [0, 8, 0, 13]"] ;
567 -> 568 ;
569 [label="entropy = 0.0\nsamples = 7\nvalue = [0, 7, 0, 0]"] ;
568 -> 569 ;
570 [label="BallX <= 25.0\nentropy = 0.371\nsamples = 14\nvalue = [0, 1, 0, 13]"] ;
568 -> 570 ;
571 [label="entropy = 0.0\nsamples = 13\nvalue = [0, 0, 0, 13]"] ;
570 -> 571 ;
572 [label="entropy = 0.0\nsamples = 1\nvalue = [0, 1, 0, 0]"] ;
570 -> 572 ;
573 [label="BallY <= 66.0\nentropy = 0.078\nsamples = 417\nvalue = [0, 4, 0, 413]"] ;
567 -> 573 ;
574 [label="entropy = 0.0\nsamples = 2\nvalue = [0, 2, 0, 0]"] ;
573 -> 574 ;
575 [label="P2X <= 7.5\nentropy = 0.044\nsamples = 415\nvalue = [0, 2, 0, 413]"] ;
573 -> 575 ;
576 [label="BallX <= 50.0\nentropy = 1.0\nsamples = 2\nvalue = [0, 1, 0, 1]"] ;
575 -> 576 ;
577 [label="entropy = 0.0\nsamples = 1\nvalue = [0, 0, 0, 1]"] ;
576 -> 577 ;
578 [label="entropy = 0.0\nsamples = 1\nvalue = [0, 1, 0, 0]"] ;
576 -> 578 ;
579 [label="BallX <= 70.5\nentropy = 0.025\nsamples = 413\nvalue = [0, 1, 0, 412]"] ;
575 -> 579 ;
580 [label="entropy = 0.0\nsamples = 407\nvalue = [0, 0, 0, 407]"] ;
579 -> 580 ;
581 [label="entropy = 0.65\nsamples = 6\nvalue = [0, 1, 0, 5]"] ;
579 -> 581 ;
582 [label="BallX <= 37.0\nentropy = 1.014\nsamples = 555\nvalue = [0, 259, 1, 295]"] ;
562 -> 582 ;
583 [label="P2X <= 57.5\nentropy = 0.836\nsamples = 346\nvalue = [0, 86, 1, 259]"] ;
582 -> 583 ;
584 [label="BallSpeedX <= -16.5\nentropy = 0.583\nsamples = 261\nvalue = [0, 33, 1, 227]"] ;
583 -> 584 ;
585 [label="BallY <= 123.5\nentropy = 0.157\nsamples = 153\nvalue = [0, 2, 1, 150]"] ;
584 -> 585 ;
586 [label="blockerX <= 137.5\nentropy = 0.918\nsamples = 3\nvalue = [0, 0, 1, 2]"] ;
585 -> 586 ;
587 [label="entropy = 0.0\nsamples = 1\nvalue = [0, 0, 1, 0]"] ;
586 -> 587 ;
588 [label="entropy = 0.0\nsamples = 2\nvalue = [0, 0, 0, 2]"] ;
586 -> 588 ;
589 [label="BallSpeedX <= -17.5\nentropy = 0.102\nsamples = 150\nvalue = [0, 2, 0, 148]"] ;
585 -> 589 ;
590 [label="entropy = 0.0\nsamples = 111\nvalue = [0, 0, 0, 111]"] ;
589 -> 590 ;
591 [label="BallX <= 27.5\nentropy = 0.292\nsamples = 39\nvalue = [0, 2, 0, 37]"] ;
589 -> 591 ;
592 [label="P2X <= 37.5\nentropy = 0.176\nsamples = 38\nvalue = [0, 1, 0, 37]"] ;
591 -> 592 ;
593 [label="entropy = 0.0\nsamples = 27\nvalue = [0, 0, 0, 27]"] ;
592 -> 593 ;
594 [label="BallY <= 151.5\nentropy = 0.439\nsamples = 11\nvalue = [0, 1, 0, 10]"] ;
592 -> 594 ;
595 [label="entropy = 0.0\nsamples = 1\nvalue = [0, 1, 0, 0]"] ;
594 -> 595 ;
596 [label="entropy = 0.0\nsamples = 10\nvalue = [0, 0, 0, 10]"] ;
594 -> 596 ;
597 [label="entropy = 0.0\nsamples = 1\nvalue = [0, 1, 0, 0]"] ;
591 -> 597 ;
598 [label="BallY <= 161.5\nentropy = 0.865\nsamples = 108\nvalue = [0, 31, 0, 77]"] ;
584 -> 598 ;
599 [label="BallX <= 23.0\nentropy = 0.991\nsamples = 70\nvalue = [0, 31, 0, 39]"] ;
598 -> 599 ;
600 [label="BallY <= 125.0\nentropy = 0.76\nsamples = 50\nvalue = [0, 11, 0, 39]"] ;
599 -> 600 ;
601 [label="entropy = 0.0\nsamples = 6\nvalue = [0, 6, 0, 0]"] ;
600 -> 601 ;
602 [label="P2X <= 47.5\nentropy = 0.511\nsamples = 44\nvalue = [0, 5, 0, 39]"] ;
600 -> 602 ;
603 [label="P1X <= 77.5\nentropy = 0.281\nsamples = 41\nvalue = [0, 2, 0, 39]"] ;
602 -> 603 ;
604 [label="entropy = 0.0\nsamples = 27\nvalue = [0, 0, 0, 27]"] ;
603 -> 604 ;
605 [label="BallSpeedY <= -12.5\nentropy = 0.592\nsamples = 14\nvalue = [0, 2, 0, 12]"] ;
603 -> 605 ;
606 [label="entropy = 0.0\nsamples = 12\nvalue = [0, 0, 0, 12]"] ;
605 -> 606 ;
607 [label="entropy = 0.0\nsamples = 2\nvalue = [0, 2, 0, 0]"] ;
605 -> 607 ;
608 [label="entropy = 0.0\nsamples = 3\nvalue = [0, 3, 0, 0]"] ;
602 -> 608 ;
609 [label="entropy = 0.0\nsamples = 20\nvalue = [0, 20, 0, 0]"] ;
599 -> 609 ;
610 [label="entropy = 0.0\nsamples = 38\nvalue = [0, 0, 0, 38]"] ;
598 -> 610 ;
611 [label="blockerX <= 82.5\nentropy = 0.956\nsamples = 85\nvalue = [0, 53, 0, 32]"] ;
583 -> 611 ;
612 [label="blockerX <= 37.5\nentropy = 0.258\nsamples = 46\nvalue = [0, 44, 0, 2]"] ;
611 -> 612 ;
613 [label="entropy = 0.0\nsamples = 2\nvalue = [0, 0, 0, 2]"] ;
612 -> 613 ;
614 [label="entropy = 0.0\nsamples = 44\nvalue = [0, 44, 0, 0]"] ;
612 -> 614 ;
615 [label="BallX <= 16.5\nentropy = 0.779\nsamples = 39\nvalue = [0, 9, 0, 30]"] ;
611 -> 615 ;
616 [label="P2X <= 67.5\nentropy = 0.337\nsamples = 32\nvalue = [0, 2, 0, 30]"] ;
615 -> 616 ;
617 [label="entropy = 0.0\nsamples = 25\nvalue = [0, 0, 0, 25]"] ;
616 -> 617 ;
618 [label="BallX <= 11.0\nentropy = 0.863\nsamples = 7\nvalue = [0, 2, 0, 5]"] ;
616 -> 618 ;
619 [label="entropy = 0.0\nsamples = 5\nvalue = [0, 0, 0, 5]"] ;
618 -> 619 ;
620 [label="entropy = 0.0\nsamples = 2\nvalue = [0, 2, 0, 0]"] ;
618 -> 620 ;
621 [label="entropy = 0.0\nsamples = 7\nvalue = [0, 7, 0, 0]"] ;
615 -> 621 ;
622 [label="BallSpeedX <= -16.5\nentropy = 0.663\nsamples = 209\nvalue = [0, 173, 0, 36]"] ;
582 -> 622 ;
623 [label="BallSpeedY <= -15.5\nentropy = 0.894\nsamples = 103\nvalue = [0, 71, 0, 32]"] ;
622 -> 623 ;
624 [label="blockerX <= 150.0\nentropy = 0.544\nsamples = 80\nvalue = [0, 70, 0, 10]"] ;
623 -> 624 ;
625 [label="entropy = 0.0\nsamples = 70\nvalue = [0, 70, 0, 0]"] ;
624 -> 625 ;
626 [label="entropy = 0.0\nsamples = 10\nvalue = [0, 0, 0, 10]"] ;
624 -> 626 ;
627 [label="P2X <= 12.5\nentropy = 0.258\nsamples = 23\nvalue = [0, 1, 0, 22]"] ;
623 -> 627 ;
628 [label="entropy = 0.0\nsamples = 1\nvalue = [0, 1, 0, 0]"] ;
627 -> 628 ;
629 [label="entropy = 0.0\nsamples = 22\nvalue = [0, 0, 0, 22]"] ;
627 -> 629 ;
630 [label="BallY <= 124.0\nentropy = 0.232\nsamples = 106\nvalue = [0, 102, 0, 4]"] ;
622 -> 630 ;
631 [label="entropy = 0.0\nsamples = 4\nvalue = [0, 0, 0, 4]"] ;
630 -> 631 ;
632 [label="entropy = 0.0\nsamples = 102\nvalue = [0, 102, 0, 0]"] ;
630 -> 632 ;
633 [label="BallY <= 140.5\nentropy = 0.392\nsamples = 2678\nvalue = [0, 162, 20, 2496]"] ;
561 -> 633 ;
634 [label="BallX <= 148.5\nentropy = 0.203\nsamples = 1468\nvalue = [0, 21, 18, 1429]"] ;
633 -> 634 ;
635 [label="BallSpeedX <= -12.5\nentropy = 0.147\nsamples = 1456\nvalue = [0, 21, 6, 1429]"] ;
634 -> 635 ;
636 [label="BallX <= 98.5\nentropy = 0.12\nsamples = 1224\nvalue = [0, 20, 0, 1204]"] ;
635 -> 636 ;
637 [label="BallX <= 97.5\nentropy = 0.219\nsamples = 541\nvalue = [0, 19, 0, 522]"] ;
636 -> 637 ;
638 [label="P1X <= 67.5\nentropy = 0.165\nsamples = 535\nvalue = [0, 13, 0, 522]"] ;
637 -> 638 ;
639 [label="BallSpeedY <= -18.5\nentropy = 0.35\nsamples = 167\nvalue = [0, 11, 0, 156]"] ;
638 -> 639 ;
640 [label="entropy = 0.0\nsamples = 3\nvalue = [0, 3, 0, 0]"] ;
639 -> 640 ;
641 [label="blockerX <= 87.5\nentropy = 0.281\nsamples = 164\nvalue = [0, 8, 0, 156]"] ;
639 -> 641 ;
642 [label="BallY <= 118.0\nentropy = 0.592\nsamples = 56\nvalue = [0, 8, 0, 48]"] ;
641 -> 642 ;
643 [label="P1X <= 62.5\nentropy = 0.991\nsamples = 18\nvalue = [0, 8, 0, 10]"] ;
642 -> 643 ;
644 [label="entropy = 0.0\nsamples = 8\nvalue = [0, 8, 0, 0]"] ;
643 -> 644 ;
645 [label="entropy = 0.0\nsamples = 10\nvalue = [0, 0, 0, 10]"] ;
643 -> 645 ;
646 [label="entropy = 0.0\nsamples = 38\nvalue = [0, 0, 0, 38]"] ;
642 -> 646 ;
647 [label="entropy = 0.0\nsamples = 108\nvalue = [0, 0, 0, 108]"] ;
641 -> 647 ;
648 [label="BallSpeedX <= -20.5\nentropy = 0.049\nsamples = 368\nvalue = [0, 2, 0, 366]"] ;
638 -> 648 ;
649 [label="P1X <= 75.0\nentropy = 0.65\nsamples = 6\nvalue = [0, 1, 0, 5]"] ;
648 -> 649 ;
650 [label="entropy = 0.0\nsamples = 5\nvalue = [0, 0, 0, 5]"] ;
649 -> 650 ;
651 [label="entropy = 0.0\nsamples = 1\nvalue = [0, 1, 0, 0]"] ;
649 -> 651 ;
652 [label="BallSpeedY <= -13.5\nentropy = 0.027\nsamples = 362\nvalue = [0, 1, 0, 361]"] ;
648 -> 652 ;
653 [label="entropy = 0.0\nsamples = 259\nvalue = [0, 0, 0, 259]"] ;
652 -> 653 ;
654 [label="blockerX <= 112.5\nentropy = 0.079\nsamples = 103\nvalue = [0, 1, 0, 102]"] ;
652 -> 654 ;
655 [label="entropy = 0.0\nsamples = 70\nvalue = [0, 0, 0, 70]"] ;
654 -> 655 ;
656 [label="blockerX <= 140.0\nentropy = 0.196\nsamples = 33\nvalue = [0, 1, 0, 32]"] ;
654 -> 656 ;
657 [label="P2X <= 42.5\nentropy = 0.65\nsamples = 6\nvalue = [0, 1, 0, 5]"] ;
656 -> 657 ;
658 [label="entropy = 0.0\nsamples = 5\nvalue = [0, 0, 0, 5]"] ;
657 -> 658 ;
659 [label="entropy = 0.0\nsamples = 1\nvalue = [0, 1, 0, 0]"] ;
657 -> 659 ;
660 [label="entropy = 0.0\nsamples = 27\nvalue = [0, 0, 0, 27]"] ;
656 -> 660 ;
661 [label="entropy = 0.0\nsamples = 6\nvalue = [0, 6, 0, 0]"] ;
637 -> 661 ;
662 [label="BallX <= 133.0\nentropy = 0.016\nsamples = 683\nvalue = [0, 1, 0, 682]"] ;
636 -> 662 ;
663 [label="entropy = 0.0\nsamples = 609\nvalue = [0, 0, 0, 609]"] ;
662 -> 663 ;
664 [label="P1X <= 95.0\nentropy = 0.103\nsamples = 74\nvalue = [0, 1, 0, 73]"] ;
662 -> 664 ;
665 [label="entropy = 0.0\nsamples = 67\nvalue = [0, 0, 0, 67]"] ;
664 -> 665 ;
666 [label="blockerX <= 62.5\nentropy = 0.592\nsamples = 7\nvalue = [0, 1, 0, 6]"] ;
664 -> 666 ;
667 [label="entropy = 0.0\nsamples = 1\nvalue = [0, 1, 0, 0]"] ;
666 -> 667 ;
668 [label="entropy = 0.0\nsamples = 6\nvalue = [0, 0, 0, 6]"] ;
666 -> 668 ;
669 [label="BallX <= 129.0\nentropy = 0.213\nsamples = 232\nvalue = [0, 1, 6, 225]"] ;
635 -> 669 ;
670 [label="blockerX <= 162.5\nentropy = 0.045\nsamples = 203\nvalue = [0, 0, 1, 202]"] ;
669 -> 670 ;
671 [label="entropy = 0.0\nsamples = 202\nvalue = [0, 0, 0, 202]"] ;
670 -> 671 ;
672 [label="entropy = 0.0\nsamples = 1\nvalue = [0, 0, 1, 0]"] ;
670 -> 672 ;
673 [label="blockerDir <= 0.0\nentropy = 0.87\nsamples = 29\nvalue = [0, 1, 5, 23]"] ;
669 -> 673 ;
674 [label="blockerX <= 150.0\nentropy = 0.98\nsamples = 12\nvalue = [0, 0, 5, 7]"] ;
673 -> 674 ;
675 [label="entropy = 0.0\nsamples = 5\nvalue = [0, 0, 5, 0]"] ;
674 -> 675 ;
676 [label="entropy = 0.0\nsamples = 7\nvalue = [0, 0, 0, 7]"] ;
674 -> 676 ;
677 [label="P1X <= 65.0\nentropy = 0.323\nsamples = 17\nvalue = [0, 1, 0, 16]"] ;
673 -> 677 ;
678 [label="entropy = 0.0\nsamples = 1\nvalue = [0, 1, 0, 0]"] ;
677 -> 678 ;
679 [label="entropy = 0.0\nsamples = 16\nvalue = [0, 0, 0, 16]"] ;
677 -> 679 ;
680 [label="entropy = 0.0\nsamples = 12\nvalue = [0, 0, 12, 0]"] ;
634 -> 680 ;
681 [label="BallX <= 96.0\nentropy = 0.537\nsamples = 1210\nvalue = [0, 141, 2, 1067]"] ;
633 -> 681 ;
682 [label="blockerX <= 5.0\nentropy = 0.422\nsamples = 70\nvalue = [0, 64, 0, 6]"] ;
681 -> 682 ;
683 [label="entropy = 0.0\nsamples = 4\nvalue = [0, 0, 0, 4]"] ;
682 -> 683 ;
684 [label="BallY <= 176.0\nentropy = 0.196\nsamples = 66\nvalue = [0, 64, 0, 2]"] ;
682 -> 684 ;
685 [label="entropy = 0.0\nsamples = 58\nvalue = [0, 58, 0, 0]"] ;
684 -> 685 ;
686 [label="BallSpeedY <= -15.5\nentropy = 0.811\nsamples = 8\nvalue = [0, 6, 0, 2]"] ;
684 -> 686 ;
687 [label="entropy = 0.0\nsamples = 6\nvalue = [0, 6, 0, 0]"] ;
686 -> 687 ;
688 [label="entropy = 0.0\nsamples = 2\nvalue = [0, 0, 0, 2]"] ;
686 -> 688 ;
689 [label="BallY <= 164.5\nentropy = 0.375\nsamples = 1140\nvalue = [0, 77, 2, 1061]"] ;
681 -> 689 ;
690 [label="P2X <= 62.5\nentropy = 0.248\nsamples = 833\nvalue = [0, 30, 2, 801]"] ;
689 -> 690 ;
691 [label="BallSpeedY <= -20.5\nentropy = 0.132\nsamples = 730\nvalue = [0, 10, 2, 718]"] ;
690 -> 691 ;
692 [label="P1X <= 65.0\nentropy = 0.996\nsamples = 13\nvalue = [0, 6, 0, 7]"] ;
691 -> 692 ;
693 [label="entropy = 0.0\nsamples = 7\nvalue = [0, 0, 0, 7]"] ;
692 -> 693 ;
694 [label="entropy = 0.0\nsamples = 6\nvalue = [0, 6, 0, 0]"] ;
692 -> 694 ;
695 [label="BallX <= 157.0\nentropy = 0.077\nsamples = 717\nvalue = [0, 4, 2, 711]"] ;
691 -> 695 ;
696 [label="P2X <= 32.5\nentropy = 0.054\nsamples = 656\nvalue = [0, 4, 0, 652]"] ;
695 -> 696 ;
697 [label="entropy = 0.0\nsamples = 351\nvalue = [0, 0, 0, 351]"] ;
696 -> 697 ;
698 [label="P2X <= 42.5\nentropy = 0.101\nsamples = 305\nvalue = [0, 4, 0, 301]"] ;
696 -> 698 ;
699 [label="BallSpeedY <= -12.5\nentropy = 0.265\nsamples = 89\nvalue = [0, 4, 0, 85]"] ;
698 -> 699 ;
700 [label="P1X <= 52.5\nentropy = 0.215\nsamples = 88\nvalue = [0, 3, 0, 85]"] ;
699 -> 700 ;
701 [label="entropy = 0.0\nsamples = 1\nvalue = [0, 1, 0, 0]"] ;
700 -> 701 ;
702 [label="blockerX <= 52.5\nentropy = 0.158\nsamples = 87\nvalue = [0, 2, 0, 85]"] ;
700 -> 702 ;
703 [label="BallY <= 156.0\nentropy = 1.0\nsamples = 2\nvalue = [0, 1, 0, 1]"] ;
702 -> 703 ;
704 [label="entropy = 0.0\nsamples = 1\nvalue = [0, 1, 0, 0]"] ;
703 -> 704 ;
705 [label="entropy = 0.0\nsamples = 1\nvalue = [0, 0, 0, 1]"] ;
703 -> 705 ;
706 [label="BallY <= 156.0\nentropy = 0.092\nsamples = 85\nvalue = [0, 1, 0, 84]"] ;
702 -> 706 ;
707 [label="entropy = 0.0\nsamples = 67\nvalue = [0, 0, 0, 67]"] ;
706 -> 707 ;
708 [label="BallX <= 134.5\nentropy = 0.31\nsamples = 18\nvalue = [0, 1, 0, 17]"] ;
706 -> 708 ;
709 [label="entropy = 0.0\nsamples = 1\nvalue = [0, 1, 0, 0]"] ;
708 -> 709 ;
710 [label="entropy = 0.0\nsamples = 17\nvalue = [0, 0, 0, 17]"] ;
708 -> 710 ;
711 [label="entropy = 0.0\nsamples = 1\nvalue = [0, 1, 0, 0]"] ;
699 -> 711 ;
712 [label="entropy = 0.0\nsamples = 216\nvalue = [0, 0, 0, 216]"] ;
698 -> 712 ;
713 [label="P2X <= 52.5\nentropy = 0.208\nsamples = 61\nvalue = [0, 0, 2, 59]"] ;
695 -> 713 ;
714 [label="entropy = 0.0\nsamples = 2\nvalue = [0, 0, 2, 0]"] ;
713 -> 714 ;
715 [label="entropy = 0.0\nsamples = 59\nvalue = [0, 0, 0, 59]"] ;
713 -> 715 ;
716 [label="BallSpeedX <= -15.5\nentropy = 0.71\nsamples = 103\nvalue = [0, 20, 0, 83]"] ;
690 -> 716 ;
717 [label="entropy = 0.0\nsamples = 79\nvalue = [0, 0, 0, 79]"] ;
716 -> 717 ;
718 [label="BallX <= 157.5\nentropy = 0.65\nsamples = 24\nvalue = [0, 20, 0, 4]"] ;
716 -> 718 ;
719 [label="blockerX <= 22.5\nentropy = 0.276\nsamples = 21\nvalue = [0, 20, 0, 1]"] ;
718 -> 719 ;
720 [label="entropy = 0.0\nsamples = 1\nvalue = [0, 0, 0, 1]"] ;
719 -> 720 ;
721 [label="entropy = 0.0\nsamples = 20\nvalue = [0, 20, 0, 0]"] ;
719 -> 721 ;
722 [label="entropy = 0.0\nsamples = 3\nvalue = [0, 0, 0, 3]"] ;
718 -> 722 ;
723 [label="BallX <= 121.0\nentropy = 0.618\nsamples = 307\nvalue = [0, 47, 0, 260]"] ;
689 -> 723 ;
724 [label="entropy = 0.0\nsamples = 18\nvalue = [0, 18, 0, 0]"] ;
723 -> 724 ;
725 [label="blockerX <= 52.5\nentropy = 0.47\nsamples = 289\nvalue = [0, 29, 0, 260]"] ;
723 -> 725 ;
726 [label="BallY <= 167.0\nentropy = 0.803\nsamples = 94\nvalue = [0, 23, 0, 71]"] ;
725 -> 726 ;
727 [label="entropy = 0.0\nsamples = 15\nvalue = [0, 15, 0, 0]"] ;
726 -> 727 ;
728 [label="P2X <= 27.5\nentropy = 0.473\nsamples = 79\nvalue = [0, 8, 0, 71]"] ;
726 -> 728 ;
729 [label="entropy = 0.0\nsamples = 46\nvalue = [0, 0, 0, 46]"] ;
728 -> 729 ;
730 [label="P2X <= 42.5\nentropy = 0.799\nsamples = 33\nvalue = [0, 8, 0, 25]"] ;
728 -> 730 ;
731 [label="entropy = 0.0\nsamples = 7\nvalue = [0, 7, 0, 0]"] ;
730 -> 731 ;
732 [label="blockerX <= 10.0\nentropy = 0.235\nsamples = 26\nvalue = [0, 1, 0, 25]"] ;
730 -> 732 ;
733 [label="entropy = 0.0\nsamples = 1\nvalue = [0, 1, 0, 0]"] ;
732 -> 733 ;
734 [label="entropy = 0.0\nsamples = 25\nvalue = [0, 0, 0, 25]"] ;
732 -> 734 ;
735 [label="BallSpeedX <= -15.5\nentropy = 0.198\nsamples = 195\nvalue = [0, 6, 0, 189]"] ;
725 -> 735 ;
736 [label="entropy = 0.0\nsamples = 77\nvalue = [0, 0, 0, 77]"] ;
735 -> 736 ;
737 [label="BallSpeedX <= -14.5\nentropy = 0.29\nsamples = 118\nvalue = [0, 6, 0, 112]"] ;
735 -> 737 ;
738 [label="P1X <= 67.5\nentropy = 0.89\nsamples = 13\nvalue = [0, 4, 0, 9]"] ;
737 -> 738 ;
739 [label="entropy = 0.0\nsamples = 9\nvalue = [0, 0, 0, 9]"] ;
738 -> 739 ;
740 [label="entropy = 0.0\nsamples = 4\nvalue = [0, 4, 0, 0]"] ;
738 -> 740 ;
741 [label="BallY <= 171.5\nentropy = 0.136\nsamples = 105\nvalue = [0, 2, 0, 103]"] ;
737 -> 741 ;
742 [label="blockerDir <= 0.0\nentropy = 0.391\nsamples = 26\nvalue = [0, 2, 0, 24]"] ;
741 -> 742 ;
743 [label="entropy = 0.0\nsamples = 1\nvalue = [0, 1, 0, 0]"] ;
742 -> 743 ;
744 [label="P2X <= 45.0\nentropy = 0.242\nsamples = 25\nvalue = [0, 1, 0, 24]"] ;
742 -> 744 ;
745 [label="entropy = 0.0\nsamples = 19\nvalue = [0, 0, 0, 19]"] ;
744 -> 745 ;
746 [label="P1X <= 87.5\nentropy = 0.65\nsamples = 6\nvalue = [0, 1, 0, 5]"] ;
744 -> 746 ;
747 [label="entropy = 0.0\nsamples = 1\nvalue = [0, 1, 0, 0]"] ;
746 -> 747 ;
748 [label="entropy = 0.0\nsamples = 5\nvalue = [0, 0, 0, 5]"] ;
746 -> 748 ;
749 [label="entropy = 0.0\nsamples = 79\nvalue = [0, 0, 0, 79]"] ;
741 -> 749 ;
750 [label="P2X <= 62.5\nentropy = 1.459\nsamples = 192\nvalue = [0, 96, 32, 64]"] ;
560 -> 750 ;
751 [label="BallX <= 179.0\nentropy = 0.852\nsamples = 54\nvalue = [0, 0, 15, 39]"] ;
750 -> 751 ;
752 [label="blockerX <= 82.5\nentropy = 0.658\nsamples = 47\nvalue = [0, 0, 8, 39]"] ;
751 -> 752 ;
753 [label="entropy = 0.0\nsamples = 3\nvalue = [0, 0, 3, 0]"] ;
752 -> 753 ;
754 [label="BallSpeedY <= -13.0\nentropy = 0.511\nsamples = 44\nvalue = [0, 0, 5, 39]"] ;
752 -> 754 ;
755 [label="BallX <= 176.5\nentropy = 0.191\nsamples = 34\nvalue = [0, 0, 1, 33]"] ;
754 -> 755 ;
756 [label="entropy = 0.0\nsamples = 28\nvalue = [0, 0, 0, 28]"] ;
755 -> 756 ;
757 [label="blockerX <= 95.0\nentropy = 0.65\nsamples = 6\nvalue = [0, 0, 1, 5]"] ;
755 -> 757 ;
758 [label="entropy = 0.0\nsamples = 5\nvalue = [0, 0, 0, 5]"] ;
757 -> 758 ;
759 [label="entropy = 0.0\nsamples = 1\nvalue = [0, 0, 1, 0]"] ;
757 -> 759 ;
760 [label="blockerX <= 97.5\nentropy = 0.971\nsamples = 10\nvalue = [0, 0, 4, 6]"] ;
754 -> 760 ;
761 [label="entropy = 0.0\nsamples = 6\nvalue = [0, 0, 0, 6]"] ;
760 -> 761 ;
762 [label="entropy = 0.0\nsamples = 4\nvalue = [0, 0, 4, 0]"] ;
760 -> 762 ;
763 [label="entropy = 0.0\nsamples = 7\nvalue = [0, 0, 7, 0]"] ;
751 -> 763 ;
764 [label="BallY <= 154.0\nentropy = 1.183\nsamples = 138\nvalue = [0, 96, 17, 25]"] ;
750 -> 764 ;
765 [label="entropy = 0.0\nsamples = 15\nvalue = [0, 0, 15, 0]"] ;
764 -> 765 ;
766 [label="BallSpeedY <= -12.5\nentropy = 0.843\nsamples = 123\nvalue = [0, 96, 2, 25]"] ;
764 -> 766 ;
767 [label="BallY <= 173.0\nentropy = 0.619\nsamples = 111\nvalue = [0, 96, 1, 14]"] ;
766 -> 767 ;
768 [label="BallX <= 176.5\nentropy = 1.108\nsamples = 36\nvalue = [0, 22, 1, 13]"] ;
767 -> 768 ;
769 [label="entropy = 0.0\nsamples = 22\nvalue = [0, 22, 0, 0]"] ;
768 -> 769 ;
770 [label="BallY <= 165.5\nentropy = 0.371\nsamples = 14\nvalue = [0, 0, 1, 13]"] ;
768 -> 770 ;
771 [label="entropy = 0.0\nsamples = 1\nvalue = [0, 0, 1, 0]"] ;
770 -> 771 ;
772 [label="entropy = 0.0\nsamples = 13\nvalue = [0, 0, 0, 13]"] ;
770 -> 772 ;
773 [label="P1X <= 82.5\nentropy = 0.102\nsamples = 75\nvalue = [0, 74, 0, 1]"] ;
767 -> 773 ;
774 [label="entropy = 0.0\nsamples = 74\nvalue = [0, 74, 0, 0]"] ;
773 -> 774 ;
775 [label="entropy = 0.0\nsamples = 1\nvalue = [0, 0, 0, 1]"] ;
773 -> 775 ;
776 [label="P2X <= 67.5\nentropy = 0.414\nsamples = 12\nvalue = [0, 0, 1, 11]"] ;
766 -> 776 ;
777 [label="entropy = 0.0\nsamples = 1\nvalue = [0, 0, 1, 0]"] ;
776 -> 777 ;
778 [label="entropy = 0.0\nsamples = 11\nvalue = [0, 0, 0, 11]"] ;
776 -> 778 ;
779 [label="P1X <= 70.0\nentropy = 0.369\nsamples = 173\nvalue = [0, 162, 1, 10]"] ;
559 -> 779 ;
780 [label="P2X <= 52.5\nentropy = 0.629\nsamples = 57\nvalue = [0, 48, 0, 9]"] ;
779 -> 780 ;
781 [label="entropy = 0.0\nsamples = 6\nvalue = [0, 0, 0, 6]"] ;
780 -> 781 ;
782 [label="blockerDir <= 0.0\nentropy = 0.323\nsamples = 51\nvalue = [0, 48, 0, 3]"] ;
780 -> 782 ;
783 [label="entropy = 0.0\nsamples = 32\nvalue = [0, 32, 0, 0]"] ;
782 -> 783 ;
784 [label="BallSpeedY <= -16.0\nentropy = 0.629\nsamples = 19\nvalue = [0, 16, 0, 3]"] ;
782 -> 784 ;
785 [label="entropy = 0.0\nsamples = 10\nvalue = [0, 10, 0, 0]"] ;
784 -> 785 ;
786 [label="P1X <= 57.5\nentropy = 0.918\nsamples = 9\nvalue = [0, 6, 0, 3]"] ;
784 -> 786 ;
787 [label="entropy = 0.0\nsamples = 3\nvalue = [0, 0, 0, 3]"] ;
786 -> 787 ;
788 [label="entropy = 0.0\nsamples = 6\nvalue = [0, 6, 0, 0]"] ;
786 -> 788 ;
789 [label="P2X <= 12.5\nentropy = 0.143\nsamples = 116\nvalue = [0, 114, 1, 1]"] ;
779 -> 789 ;
790 [label="P2X <= 7.5\nentropy = 0.371\nsamples = 14\nvalue = [0, 13, 1, 0]"] ;
789 -> 790 ;
791 [label="entropy = 0.0\nsamples = 13\nvalue = [0, 13, 0, 0]"] ;
790 -> 791 ;
792 [label="entropy = 0.0\nsamples = 1\nvalue = [0, 0, 1, 0]"] ;
790 -> 792 ;
793 [label="BallY <= 153.0\nentropy = 0.079\nsamples = 102\nvalue = [0, 101, 0, 1]"] ;
789 -> 793 ;
794 [label="entropy = 0.0\nsamples = 86\nvalue = [0, 86, 0, 0]"] ;
793 -> 794 ;
795 [label="P2X <= 62.5\nentropy = 0.337\nsamples = 16\nvalue = [0, 15, 0, 1]"] ;
793 -> 795 ;
796 [label="entropy = 0.0\nsamples = 1\nvalue = [0, 0, 0, 1]"] ;
795 -> 796 ;
797 [label="entropy = 0.0\nsamples = 15\nvalue = [0, 15, 0, 0]"] ;
795 -> 797 ;
798 [label="P2X <= 57.5\nentropy = 1.273\nsamples = 12159\nvalue = [0, 6874, 895, 4390]"] ;
182 -> 798 ;
799 [label="BallX <= 89.0\nentropy = 1.183\nsamples = 9337\nvalue = [0, 6057, 629, 2651]"] ;
798 -> 799 ;
800 [label="blockerX <= 97.5\nentropy = 0.936\nsamples = 1253\nvalue = [0, 390, 6, 857]"] ;
799 -> 800 ;
801 [label="P1X <= 52.5\nentropy = 0.65\nsamples = 618\nvalue = [0, 89, 4, 525]"] ;
800 -> 801 ;
802 [label="BallSpeedY <= -15.5\nentropy = 0.774\nsamples = 450\nvalue = [0, 86, 4, 360]"] ;
801 -> 802 ;
803 [label="P2X <= 32.5\nentropy = 1.1\nsamples = 183\nvalue = [0, 71, 4, 108]"] ;
802 -> 803 ;
804 [label="BallX <= 56.5\nentropy = 0.211\nsamples = 60\nvalue = [0, 58, 0, 2]"] ;
803 -> 804 ;
805 [label="entropy = 0.0\nsamples = 1\nvalue = [0, 0, 0, 1]"] ;
804 -> 805 ;
806 [label="BallY <= 198.5\nentropy = 0.124\nsamples = 59\nvalue = [0, 58, 0, 1]"] ;
804 -> 806 ;
807 [label="entropy = 0.0\nsamples = 44\nvalue = [0, 44, 0, 0]"] ;
806 -> 807 ;
808 [label="BallX <= 75.0\nentropy = 0.353\nsamples = 15\nvalue = [0, 14, 0, 1]"] ;
806 -> 808 ;
809 [label="entropy = 0.0\nsamples = 1\nvalue = [0, 0, 0, 1]"] ;
808 -> 809 ;
810 [label="entropy = 0.0\nsamples = 14\nvalue = [0, 14, 0, 0]"] ;
808 -> 810 ;
811 [label="P1X <= 47.5\nentropy = 0.688\nsamples = 123\nvalue = [0, 13, 4, 106]"] ;
803 -> 811 ;
812 [label="BallY <= 221.0\nentropy = 0.443\nsamples = 112\nvalue = [0, 4, 4, 104]"] ;
811 -> 812 ;
813 [label="entropy = 0.0\nsamples = 103\nvalue = [0, 0, 0, 103]"] ;
812 -> 813 ;
814 [label="BallY <= 226.5\nentropy = 1.392\nsamples = 9\nvalue = [0, 4, 4, 1]"] ;
812 -> 814 ;
815 [label="entropy = 0.0\nsamples = 4\nvalue = [0, 0, 4, 0]"] ;
814 -> 815 ;
816 [label="ballDir <= 1.0\nentropy = 0.722\nsamples = 5\nvalue = [0, 4, 0, 1]"] ;
814 -> 816 ;
817 [label="entropy = 0.0\nsamples = 1\nvalue = [0, 0, 0, 1]"] ;
816 -> 817 ;
818 [label="entropy = 0.0\nsamples = 4\nvalue = [0, 4, 0, 0]"] ;
816 -> 818 ;
819 [label="P2X <= 42.5\nentropy = 0.684\nsamples = 11\nvalue = [0, 9, 0, 2]"] ;
811 -> 819 ;
820 [label="entropy = 0.0\nsamples = 9\nvalue = [0, 9, 0, 0]"] ;
819 -> 820 ;
821 [label="entropy = 0.0\nsamples = 2\nvalue = [0, 0, 0, 2]"] ;
819 -> 821 ;
822 [label="P1X <= 2.5\nentropy = 0.312\nsamples = 267\nvalue = [0, 15, 0, 252]"] ;
802 -> 822 ;
823 [label="P2X <= 35.0\nentropy = 0.755\nsamples = 69\nvalue = [0, 15, 0, 54]"] ;
822 -> 823 ;
824 [label="entropy = 0.0\nsamples = 54\nvalue = [0, 0, 0, 54]"] ;
823 -> 824 ;
825 [label="entropy = 0.0\nsamples = 15\nvalue = [0, 15, 0, 0]"] ;
823 -> 825 ;
826 [label="entropy = 0.0\nsamples = 198\nvalue = [0, 0, 0, 198]"] ;
822 -> 826 ;
827 [label="blockerX <= 77.5\nentropy = 0.129\nsamples = 168\nvalue = [0, 3, 0, 165]"] ;
801 -> 827 ;
828 [label="P2X <= 35.0\nentropy = 0.053\nsamples = 166\nvalue = [0, 1, 0, 165]"] ;
827 -> 828 ;
829 [label="BallY <= 215.0\nentropy = 0.286\nsamples = 20\nvalue = [0, 1, 0, 19]"] ;
828 -> 829 ;
830 [label="entropy = 0.0\nsamples = 15\nvalue = [0, 0, 0, 15]"] ;
829 -> 830 ;
831 [label="entropy = 0.722\nsamples = 5\nvalue = [0, 1, 0, 4]"] ;
829 -> 831 ;
832 [label="entropy = 0.0\nsamples = 146\nvalue = [0, 0, 0, 146]"] ;
828 -> 832 ;
833 [label="entropy = 0.0\nsamples = 2\nvalue = [0, 2, 0, 0]"] ;
827 -> 833 ;
834 [label="P1X <= 82.5\nentropy = 1.026\nsamples = 635\nvalue = [0, 301, 2, 332]"] ;
800 -> 834 ;
835 [label="blockerDir <= 0.0\nentropy = 1.028\nsamples = 573\nvalue = [0, 301, 2, 270]"] ;
834 -> 835 ;
836 [label="P1X <= 37.5\nentropy = 0.997\nsamples = 437\nvalue = [0, 178, 1, 258]"] ;
835 -> 836 ;
837 [label="blockerX <= 147.5\nentropy = 0.994\nsamples = 291\nvalue = [0, 177, 1, 113]"] ;
836 -> 837 ;
838 [label="BallY <= 280.5\nentropy = 1.032\nsamples = 241\nvalue = [0, 127, 1, 113]"] ;
837 -> 838 ;
839 [label="BallX <= 61.5\nentropy = 0.998\nsamples = 166\nvalue = [0, 61, 1, 104]"] ;
838 -> 839 ;
840 [label="entropy = 0.0\nsamples = 39\nvalue = [0, 0, 0, 39]"] ;
839 -> 840 ;
841 [label="P2X <= 32.5\nentropy = 1.058\nsamples = 127\nvalue = [0, 61, 1, 65]"] ;
839 -> 841 ;
842 [label="P1X <= 5.0\nentropy = 0.847\nsamples = 55\nvalue = [0, 11, 1, 43]"] ;
841 -> 842 ;
843 [label="BallY <= 178.5\nentropy = 0.318\nsamples = 43\nvalue = [0, 1, 1, 41]"] ;
842 -> 843 ;
844 [label="entropy = 0.0\nsamples = 1\nvalue = [0, 1, 0, 0]"] ;
843 -> 844 ;
845 [label="BallX <= 71.0\nentropy = 0.162\nsamples = 42\nvalue = [0, 0, 1, 41]"] ;
843 -> 845 ;
846 [label="entropy = 0.592\nsamples = 7\nvalue = [0, 0, 1, 6]"] ;
845 -> 846 ;
847 [label="entropy = 0.0\nsamples = 35\nvalue = [0, 0, 0, 35]"] ;
845 -> 847 ;
848 [label="BallSpeedY <= -14.0\nentropy = 0.65\nsamples = 12\nvalue = [0, 10, 0, 2]"] ;
842 -> 848 ;
849 [label="entropy = 0.0\nsamples = 2\nvalue = [0, 0, 0, 2]"] ;
848 -> 849 ;
850 [label="entropy = 0.0\nsamples = 10\nvalue = [0, 10, 0, 0]"] ;
848 -> 850 ;
851 [label="BallSpeedX <= -14.5\nentropy = 0.888\nsamples = 72\nvalue = [0, 50, 0, 22]"] ;
841 -> 851 ;
852 [label="entropy = 0.0\nsamples = 37\nvalue = [0, 37, 0, 0]"] ;
851 -> 852 ;
853 [label="blockerX <= 102.5\nentropy = 0.952\nsamples = 35\nvalue = [0, 13, 0, 22]"] ;
851 -> 853 ;
854 [label="BallX <= 82.0\nentropy = 0.787\nsamples = 17\nvalue = [0, 13, 0, 4]"] ;
853 -> 854 ;
855 [label="entropy = 0.0\nsamples = 13\nvalue = [0, 13, 0, 0]"] ;
854 -> 855 ;
856 [label="entropy = 0.0\nsamples = 4\nvalue = [0, 0, 0, 4]"] ;
854 -> 856 ;
857 [label="entropy = 0.0\nsamples = 18\nvalue = [0, 0, 0, 18]"] ;
853 -> 857 ;
858 [label="BallSpeedX <= 15.5\nentropy = 0.529\nsamples = 75\nvalue = [0, 66, 0, 9]"] ;
838 -> 858 ;
859 [label="entropy = 0.0\nsamples = 48\nvalue = [0, 48, 0, 0]"] ;
858 -> 859 ;
860 [label="P2X <= 50.0\nentropy = 0.918\nsamples = 27\nvalue = [0, 18, 0, 9]"] ;
858 -> 860 ;
861 [label="blockerX <= 135.0\nentropy = 0.971\nsamples = 15\nvalue = [0, 6, 0, 9]"] ;
860 -> 861 ;
862 [label="entropy = 0.0\nsamples = 9\nvalue = [0, 0, 0, 9]"] ;
861 -> 862 ;
863 [label="entropy = 0.0\nsamples = 6\nvalue = [0, 6, 0, 0]"] ;
861 -> 863 ;
864 [label="entropy = 0.0\nsamples = 12\nvalue = [0, 12, 0, 0]"] ;
860 -> 864 ;
865 [label="entropy = 0.0\nsamples = 50\nvalue = [0, 50, 0, 0]"] ;
837 -> 865 ;
866 [label="BallY <= 185.5\nentropy = 0.059\nsamples = 146\nvalue = [0, 1, 0, 145]"] ;
836 -> 866 ;
867 [label="entropy = 0.0\nsamples = 1\nvalue = [0, 1, 0, 0]"] ;
866 -> 867 ;
868 [label="entropy = 0.0\nsamples = 145\nvalue = [0, 0, 0, 145]"] ;
866 -> 868 ;
869 [label="BallSpeedX <= -17.5\nentropy = 0.492\nsamples = 136\nvalue = [0, 123, 1, 12]"] ;
835 -> 869 ;
870 [label="BallY <= 197.0\nentropy = 0.996\nsamples = 26\nvalue = [0, 14, 0, 12]"] ;
869 -> 870 ;
871 [label="entropy = 0.0\nsamples = 12\nvalue = [0, 0, 0, 12]"] ;
870 -> 871 ;
872 [label="entropy = 0.0\nsamples = 14\nvalue = [0, 14, 0, 0]"] ;
870 -> 872 ;
873 [label="BallY <= 209.0\nentropy = 0.075\nsamples = 110\nvalue = [0, 109, 1, 0]"] ;
869 -> 873 ;
874 [label="entropy = 0.0\nsamples = 85\nvalue = [0, 85, 0, 0]"] ;
873 -> 874 ;
875 [label="BallSpeedX <= -15.0\nentropy = 0.242\nsamples = 25\nvalue = [0, 24, 1, 0]"] ;
873 -> 875 ;
876 [label="entropy = 0.0\nsamples = 1\nvalue = [0, 0, 1, 0]"] ;
875 -> 876 ;
877 [label="entropy = 0.0\nsamples = 24\nvalue = [0, 24, 0, 0]"] ;
875 -> 877 ;
878 [label="entropy = 0.0\nsamples = 62\nvalue = [0, 0, 0, 62]"] ;
834 -> 878 ;
879 [label="BallY <= 250.5\nentropy = 1.126\nsamples = 8084\nvalue = [0, 5667, 623, 1794]"] ;
799 -> 879 ;
880 [label="ballDir <= 1.5\nentropy = 1.335\nsamples = 4213\nvalue = [0, 2550, 574, 1089]"] ;
879 -> 880 ;
881 [label="P1X <= 32.5\nentropy = 1.394\nsamples = 1006\nvalue = [0, 114, 473, 419]"] ;
880 -> 881 ;
882 [label="BallX <= 183.0\nentropy = 1.167\nsamples = 214\nvalue = [0, 65, 137, 12]"] ;
881 -> 882 ;
883 [label="BallY <= 246.5\nentropy = 0.857\nsamples = 157\nvalue = [0, 27, 125, 5]"] ;
882 -> 883 ;
884 [label="BallY <= 212.5\nentropy = 0.136\nsamples = 123\nvalue = [0, 1, 121, 1]"] ;
883 -> 884 ;
885 [label="entropy = 0.0\nsamples = 1\nvalue = [0, 0, 0, 1]"] ;
884 -> 885 ;
886 [label="BallSpeedX <= 16.5\nentropy = 0.069\nsamples = 122\nvalue = [0, 1, 121, 0]"] ;
884 -> 886 ;
887 [label="entropy = 0.0\nsamples = 115\nvalue = [0, 0, 115, 0]"] ;
886 -> 887 ;
888 [label="ballDir <= 0.5\nentropy = 0.592\nsamples = 7\nvalue = [0, 1, 6, 0]"] ;
886 -> 888 ;
889 [label="entropy = 0.0\nsamples = 1\nvalue = [0, 1, 0, 0]"] ;
888 -> 889 ;
890 [label="entropy = 0.0\nsamples = 6\nvalue = [0, 0, 6, 0]"] ;
888 -> 890 ;
891 [label="BallSpeedY <= -15.5\nentropy = 1.022\nsamples = 34\nvalue = [0, 26, 4, 4]"] ;
883 -> 891 ;
892 [label="entropy = 0.0\nsamples = 4\nvalue = [0, 0, 4, 0]"] ;
891 -> 892 ;
893 [label="blockerX <= 125.0\nentropy = 0.567\nsamples = 30\nvalue = [0, 26, 0, 4]"] ;
891 -> 893 ;
894 [label="entropy = 0.0\nsamples = 4\nvalue = [0, 0, 0, 4]"] ;
893 -> 894 ;
895 [label="entropy = 0.0\nsamples = 26\nvalue = [0, 26, 0, 0]"] ;
893 -> 895 ;
896 [label="BallY <= 210.5\nentropy = 1.235\nsamples = 57\nvalue = [0, 38, 12, 7]"] ;
882 -> 896 ;
897 [label="BallSpeedX <= 0.0\nentropy = 0.881\nsamples = 10\nvalue = [0, 0, 3, 7]"] ;
896 -> 897 ;
898 [label="entropy = 0.0\nsamples = 3\nvalue = [0, 0, 3, 0]"] ;
897 -> 898 ;
899 [label="entropy = 0.0\nsamples = 7\nvalue = [0, 0, 0, 7]"] ;
897 -> 899 ;
900 [label="BallSpeedY <= -12.5\nentropy = 0.705\nsamples = 47\nvalue = [0, 38, 9, 0]"] ;
896 -> 900 ;
901 [label="entropy = 0.0\nsamples = 38\nvalue = [0, 38, 0, 0]"] ;
900 -> 901 ;
902 [label="entropy = 0.0\nsamples = 9\nvalue = [0, 0, 9, 0]"] ;
900 -> 902 ;
903 [label="BallY <= 235.5\nentropy = 1.267\nsamples = 792\nvalue = [0, 49, 336, 407]"] ;
881 -> 903 ;
904 [label="BallY <= 217.5\nentropy = 1.03\nsamples = 549\nvalue = [0, 3, 310, 236]"] ;
903 -> 904 ;
905 [label="P2X <= 47.5\nentropy = 0.584\nsamples = 193\nvalue = [0, 0, 166, 27]"] ;
904 -> 905 ;
906 [label="BallSpeedX <= -18.0\nentropy = 0.065\nsamples = 129\nvalue = [0, 0, 128, 1]"] ;
905 -> 906 ;
907 [label="P2X <= 42.5\nentropy = 0.216\nsamples = 29\nvalue = [0, 0, 28, 1]"] ;
906 -> 907 ;
908 [label="BallY <= 206.5\nentropy = 0.371\nsamples = 14\nvalue = [0, 0, 13, 1]"] ;
907 -> 908 ;
909 [label="entropy = 0.0\nsamples = 1\nvalue = [0, 0, 0, 1]"] ;
908 -> 909 ;
910 [label="entropy = 0.0\nsamples = 13\nvalue = [0, 0, 13, 0]"] ;
908 -> 910 ;
911 [label="entropy = 0.0\nsamples = 15\nvalue = [0, 0, 15, 0]"] ;
907 -> 911 ;
912 [label="entropy = 0.0\nsamples = 100\nvalue = [0, 0, 100, 0]"] ;
906 -> 912 ;
913 [label="BallSpeedX <= 23.0\nentropy = 0.974\nsamples = 64\nvalue = [0, 0, 38, 26]"] ;
905 -> 913 ;
914 [label="P2X <= 52.5\nentropy = 0.84\nsamples = 52\nvalue = [0, 0, 38, 14]"] ;
913 -> 914 ;
915 [label="entropy = 0.0\nsamples = 23\nvalue = [0, 0, 23, 0]"] ;
914 -> 915 ;
916 [label="BallSpeedX <= 16.5\nentropy = 0.999\nsamples = 29\nvalue = [0, 0, 15, 14]"] ;
914 -> 916 ;
917 [label="BallY <= 205.0\nentropy = 0.831\nsamples = 19\nvalue = [0, 0, 14, 5]"] ;
916 -> 917 ;
918 [label="blockerX <= 50.0\nentropy = 0.544\nsamples = 16\nvalue = [0, 0, 14, 2]"] ;
917 -> 918 ;
919 [label="entropy = 0.0\nsamples = 1\nvalue = [0, 0, 0, 1]"] ;
918 -> 919 ;
920 [label="blockerDir <= 0.0\nentropy = 0.353\nsamples = 15\nvalue = [0, 0, 14, 1]"] ;
918 -> 920 ;
921 [label="entropy = 0.0\nsamples = 13\nvalue = [0, 0, 13, 0]"] ;
920 -> 921 ;
922 [label="BallSpeedX <= -2.5\nentropy = 1.0\nsamples = 2\nvalue = [0, 0, 1, 1]"] ;
920 -> 922 ;
923 [label="entropy = 0.0\nsamples = 1\nvalue = [0, 0, 0, 1]"] ;
922 -> 923 ;
924 [label="entropy = 0.0\nsamples = 1\nvalue = [0, 0, 1, 0]"] ;
922 -> 924 ;
925 [label="entropy = 0.0\nsamples = 3\nvalue = [0, 0, 0, 3]"] ;
917 -> 925 ;
926 [label="BallY <= 216.0\nentropy = 0.469\nsamples = 10\nvalue = [0, 0, 1, 9]"] ;
916 -> 926 ;
927 [label="entropy = 0.0\nsamples = 9\nvalue = [0, 0, 0, 9]"] ;
926 -> 927 ;
928 [label="entropy = 0.0\nsamples = 1\nvalue = [0, 0, 1, 0]"] ;
926 -> 928 ;
929 [label="entropy = 0.0\nsamples = 12\nvalue = [0, 0, 0, 12]"] ;
913 -> 929 ;
930 [label="P2X <= 27.5\nentropy = 1.037\nsamples = 356\nvalue = [0, 3, 144, 209]"] ;
904 -> 930 ;
931 [label="BallY <= 220.0\nentropy = 0.607\nsamples = 94\nvalue = [0, 0, 80, 14]"] ;
930 -> 931 ;
932 [label="P1X <= 70.0\nentropy = 0.994\nsamples = 22\nvalue = [0, 0, 10, 12]"] ;
931 -> 932 ;
933 [label="entropy = 0.0\nsamples = 12\nvalue = [0, 0, 0, 12]"] ;
932 -> 933 ;
934 [label="entropy = 0.0\nsamples = 10\nvalue = [0, 0, 10, 0]"] ;
932 -> 934 ;
935 [label="BallSpeedY <= -12.5\nentropy = 0.183\nsamples = 72\nvalue = [0, 0, 70, 2]"] ;
931 -> 935 ;
936 [label="entropy = 0.0\nsamples = 54\nvalue = [0, 0, 54, 0]"] ;
935 -> 936 ;
937 [label="P2X <= 17.5\nentropy = 0.503\nsamples = 18\nvalue = [0, 0, 16, 2]"] ;
935 -> 937 ;
938 [label="entropy = 0.0\nsamples = 1\nvalue = [0, 0, 0, 1]"] ;
937 -> 938 ;
939 [label="BallX <= 194.0\nentropy = 0.323\nsamples = 17\nvalue = [0, 0, 16, 1]"] ;
937 -> 939 ;
940 [label="P1X <= 50.0\nentropy = 1.0\nsamples = 2\nvalue = [0, 0, 1, 1]"] ;
939 -> 940 ;
941 [label="entropy = 0.0\nsamples = 1\nvalue = [0, 0, 1, 0]"] ;
940 -> 941 ;
942 [label="entropy = 0.0\nsamples = 1\nvalue = [0, 0, 0, 1]"] ;
940 -> 942 ;
943 [label="entropy = 0.0\nsamples = 15\nvalue = [0, 0, 15, 0]"] ;
939 -> 943 ;
944 [label="BallX <= 178.0\nentropy = 0.888\nsamples = 262\nvalue = [0, 3, 64, 195]"] ;
930 -> 944 ;
945 [label="P2X <= 52.5\nentropy = 0.823\nsamples = 62\nvalue = [0, 1, 49, 12]"] ;
944 -> 945 ;
946 [label="BallSpeedY <= -13.0\nentropy = 0.282\nsamples = 50\nvalue = [0, 1, 48, 1]"] ;
945 -> 946 ;
947 [label="entropy = 0.0\nsamples = 48\nvalue = [0, 0, 48, 0]"] ;
946 -> 947 ;
948 [label="P1X <= 75.0\nentropy = 1.0\nsamples = 2\nvalue = [0, 1, 0, 1]"] ;
946 -> 948 ;
949 [label="entropy = 0.0\nsamples = 1\nvalue = [0, 0, 0, 1]"] ;
948 -> 949 ;
950 [label="entropy = 0.0\nsamples = 1\nvalue = [0, 1, 0, 0]"] ;
948 -> 950 ;
951 [label="BallX <= 146.5\nentropy = 0.414\nsamples = 12\nvalue = [0, 0, 1, 11]"] ;
945 -> 951 ;
952 [label="entropy = 0.0\nsamples = 1\nvalue = [0, 0, 1, 0]"] ;
951 -> 952 ;
953 [label="entropy = 0.0\nsamples = 11\nvalue = [0, 0, 0, 11]"] ;
951 -> 953 ;
954 [label="BallSpeedX <= -13.5\nentropy = 0.464\nsamples = 200\nvalue = [0, 2, 15, 183]"] ;
944 -> 954 ;
955 [label="BallY <= 228.5\nentropy = 1.113\nsamples = 49\nvalue = [0, 2, 15, 32]"] ;
954 -> 955 ;
956 [label="P2X <= 42.5\nentropy = 1.175\nsamples = 27\nvalue = [0, 1, 15, 11]"] ;
955 -> 956 ;
957 [label="blockerX <= 47.5\nentropy = 0.337\nsamples = 16\nvalue = [0, 1, 15, 0]"] ;
956 -> 957 ;
958 [label="entropy = 0.0\nsamples = 1\nvalue = [0, 1, 0, 0]"] ;
957 -> 958 ;
959 [label="entropy = 0.0\nsamples = 15\nvalue = [0, 0, 15, 0]"] ;
957 -> 959 ;
960 [label="entropy = 0.0\nsamples = 11\nvalue = [0, 0, 0, 11]"] ;
956 -> 960 ;
961 [label="P1X <= 57.5\nentropy = 0.267\nsamples = 22\nvalue = [0, 1, 0, 21]"] ;
955 -> 961 ;
962 [label="P1X <= 50.0\nentropy = 0.65\nsamples = 6\nvalue = [0, 1, 0, 5]"] ;
961 -> 962 ;
963 [label="entropy = 0.0\nsamples = 5\nvalue = [0, 0, 0, 5]"] ;
962 -> 963 ;
964 [label="entropy = 0.0\nsamples = 1\nvalue = [0, 1, 0, 0]"] ;
962 -> 964 ;
965 [label="entropy = 0.0\nsamples = 16\nvalue = [0, 0, 0, 16]"] ;
961 -> 965 ;
966 [label="entropy = 0.0\nsamples = 151\nvalue = [0, 0, 0, 151]"] ;
954 -> 966 ;
967 [label="BallSpeedX <= 0.0\nentropy = 1.156\nsamples = 243\nvalue = [0, 46, 26, 171]"] ;
903 -> 967 ;
968 [label="blockerDir <= 0.0\nentropy = 1.523\nsamples = 84\nvalue = [0, 19, 26, 39]"] ;
967 -> 968 ;
969 [label="P2X <= 12.5\nentropy = 1.234\nsamples = 58\nvalue = [0, 11, 8, 39]"] ;
968 -> 969 ;
970 [label="entropy = 0.0\nsamples = 8\nvalue = [0, 0, 8, 0]"] ;
969 -> 970 ;
971 [label="BallY <= 247.5\nentropy = 0.76\nsamples = 50\nvalue = [0, 11, 0, 39]"] ;
969 -> 971 ;
972 [label="blockerX <= 45.0\nentropy = 0.511\nsamples = 44\nvalue = [0, 5, 0, 39]"] ;
971 -> 972 ;
973 [label="P2X <= 25.0\nentropy = 1.0\nsamples = 8\nvalue = [0, 4, 0, 4]"] ;
972 -> 973 ;
974 [label="entropy = 0.0\nsamples = 4\nvalue = [0, 0, 0, 4]"] ;
973 -> 974 ;
975 [label="entropy = 0.0\nsamples = 4\nvalue = [0, 4, 0, 0]"] ;
973 -> 975 ;
976 [label="P1X <= 47.5\nentropy = 0.183\nsamples = 36\nvalue = [0, 1, 0, 35]"] ;
972 -> 976 ;
977 [label="entropy = 0.0\nsamples = 1\nvalue = [0, 1, 0, 0]"] ;
976 -> 977 ;
978 [label="entropy = 0.0\nsamples = 35\nvalue = [0, 0, 0, 35]"] ;
976 -> 978 ;
979 [label="entropy = 0.0\nsamples = 6\nvalue = [0, 6, 0, 0]"] ;
971 -> 979 ;
980 [label="BallSpeedY <= -17.5\nentropy = 0.89\nsamples = 26\nvalue = [0, 8, 18, 0]"] ;
968 -> 980 ;
981 [label="entropy = 0.0\nsamples = 8\nvalue = [0, 8, 0, 0]"] ;
980 -> 981 ;
982 [label="entropy = 0.0\nsamples = 18\nvalue = [0, 0, 18, 0]"] ;
980 -> 982 ;
983 [label="P1X <= 87.5\nentropy = 0.657\nsamples = 159\nvalue = [0, 27, 0, 132]"] ;
967 -> 983 ;
984 [label="BallX <= 182.0\nentropy = 0.546\nsamples = 151\nvalue = [0, 19, 0, 132]"] ;
983 -> 984 ;
985 [label="BallX <= 170.5\nentropy = 0.19\nsamples = 103\nvalue = [0, 3, 0, 100]"] ;
984 -> 985 ;
986 [label="entropy = 0.0\nsamples = 50\nvalue = [0, 0, 0, 50]"] ;
985 -> 986 ;
987 [label="P1X <= 52.5\nentropy = 0.314\nsamples = 53\nvalue = [0, 3, 0, 50]"] ;
985 -> 987 ;
988 [label="BallSpeedY <= -15.5\nentropy = 0.48\nsamples = 29\nvalue = [0, 3, 0, 26]"] ;
987 -> 988 ;
989 [label="P1X <= 42.5\nentropy = 0.371\nsamples = 28\nvalue = [0, 2, 0, 26]"] ;
988 -> 989 ;
990 [label="blockerDir <= 0.0\nentropy = 0.722\nsamples = 10\nvalue = [0, 2, 0, 8]"] ;
989 -> 990 ;
991 [label="entropy = 0.0\nsamples = 8\nvalue = [0, 0, 0, 8]"] ;
990 -> 991 ;
992 [label="entropy = 0.0\nsamples = 2\nvalue = [0, 2, 0, 0]"] ;
990 -> 992 ;
993 [label="entropy = 0.0\nsamples = 18\nvalue = [0, 0, 0, 18]"] ;
989 -> 993 ;
994 [label="entropy = 0.0\nsamples = 1\nvalue = [0, 1, 0, 0]"] ;
988 -> 994 ;
995 [label="entropy = 0.0\nsamples = 24\nvalue = [0, 0, 0, 24]"] ;
987 -> 995 ;
996 [label="BallX <= 189.5\nentropy = 0.918\nsamples = 48\nvalue = [0, 16, 0, 32]"] ;
984 -> 996 ;
997 [label="BallSpeedX <= 15.0\nentropy = 0.523\nsamples = 17\nvalue = [0, 15, 0, 2]"] ;
996 -> 997 ;
998 [label="entropy = 0.0\nsamples = 2\nvalue = [0, 0, 0, 2]"] ;
997 -> 998 ;
999 [label="entropy = 0.0\nsamples = 15\nvalue = [0, 15, 0, 0]"] ;
997 -> 999 ;
1000 [label="BallY <= 246.5\nentropy = 0.206\nsamples = 31\nvalue = [0, 1, 0, 30]"] ;
996 -> 1000 ;
1001 [label="entropy = 0.0\nsamples = 16\nvalue = [0, 0, 0, 16]"] ;
1000 -> 1001 ;
1002 [label="blockerX <= 55.0\nentropy = 0.353\nsamples = 15\nvalue = [0, 1, 0, 14]"] ;
1000 -> 1002 ;
1003 [label="entropy = 0.0\nsamples = 6\nvalue = [0, 0, 0, 6]"] ;
1002 -> 1003 ;
1004 [label="blockerDir <= 0.0\nentropy = 0.503\nsamples = 9\nvalue = [0, 1, 0, 8]"] ;
1002 -> 1004 ;
1005 [label="entropy = 0.0\nsamples = 3\nvalue = [0, 0, 0, 3]"] ;
1004 -> 1005 ;
1006 [label="entropy = 0.65\nsamples = 6\nvalue = [0, 1, 0, 5]"] ;
1004 -> 1006 ;
1007 [label="entropy = 0.0\nsamples = 8\nvalue = [0, 8, 0, 0]"] ;
983 -> 1007 ;
1008 [label="ballDir <= 2.5\nentropy = 0.93\nsamples = 3207\nvalue = [0, 2436, 101, 670]"] ;
880 -> 1008 ;
1009 [label="BallSpeedY <= -14.5\nentropy = 0.855\nsamples = 3137\nvalue = [0, 2421, 47, 669]"] ;
1008 -> 1009 ;
1010 [label="P1X <= 47.5\nentropy = 0.577\nsamples = 1799\nvalue = [0, 1578, 13, 208]"] ;
1009 -> 1010 ;
1011 [label="BallX <= 109.5\nentropy = 0.262\nsamples = 1010\nvalue = [0, 971, 7, 32]"] ;
1010 -> 1011 ;
1012 [label="BallY <= 218.5\nentropy = 0.563\nsamples = 235\nvalue = [0, 204, 0, 31]"] ;
1011 -> 1012 ;
1013 [label="entropy = 0.0\nsamples = 155\nvalue = [0, 155, 0, 0]"] ;
1012 -> 1013 ;
1014 [label="P2X <= 32.5\nentropy = 0.963\nsamples = 80\nvalue = [0, 49, 0, 31]"] ;
1012 -> 1014 ;
1015 [label="blockerX <= 40.0\nentropy = 0.911\nsamples = 46\nvalue = [0, 15, 0, 31]"] ;
1014 -> 1015 ;
1016 [label="entropy = 0.0\nsamples = 11\nvalue = [0, 11, 0, 0]"] ;
1015 -> 1016 ;
1017 [label="P1X <= 17.5\nentropy = 0.513\nsamples = 35\nvalue = [0, 4, 0, 31]"] ;
1015 -> 1017 ;
1018 [label="BallSpeedX <= -15.5\nentropy = 0.863\nsamples = 14\nvalue = [0, 4, 0, 10]"] ;
1017 -> 1018 ;
1019 [label="P2X <= 27.5\nentropy = 0.439\nsamples = 11\nvalue = [0, 1, 0, 10]"] ;
1018 -> 1019 ;
1020 [label="entropy = 0.0\nsamples = 10\nvalue = [0, 0, 0, 10]"] ;
1019 -> 1020 ;
1021 [label="entropy = 0.0\nsamples = 1\nvalue = [0, 1, 0, 0]"] ;
1019 -> 1021 ;
1022 [label="entropy = 0.0\nsamples = 3\nvalue = [0, 3, 0, 0]"] ;
1018 -> 1022 ;
1023 [label="entropy = 0.0\nsamples = 21\nvalue = [0, 0, 0, 21]"] ;
1017 -> 1023 ;
1024 [label="entropy = 0.0\nsamples = 34\nvalue = [0, 34, 0, 0]"] ;
1014 -> 1024 ;
1025 [label="BallY <= 249.5\nentropy = 0.089\nsamples = 775\nvalue = [0, 767, 7, 1]"] ;
1011 -> 1025 ;
1026 [label="BallSpeedX <= 16.5\nentropy = 0.031\nsamples = 715\nvalue = [0, 713, 1, 1]"] ;
1025 -> 1026 ;
1027 [label="BallY <= 238.0\nentropy = 0.015\nsamples = 709\nvalue = [0, 708, 0, 1]"] ;
1026 -> 1027 ;
1028 [label="entropy = 0.0\nsamples = 618\nvalue = [0, 618, 0, 0]"] ;
1027 -> 1028 ;
1029 [label="BallX <= 123.0\nentropy = 0.087\nsamples = 91\nvalue = [0, 90, 0, 1]"] ;
1027 -> 1029 ;
1030 [label="BallSpeedX <= -17.5\nentropy = 0.503\nsamples = 9\nvalue = [0, 8, 0, 1]"] ;
1029 -> 1030 ;
1031 [label="entropy = 0.0\nsamples = 1\nvalue = [0, 0, 0, 1]"] ;
1030 -> 1031 ;
1032 [label="entropy = 0.0\nsamples = 8\nvalue = [0, 8, 0, 0]"] ;
1030 -> 1032 ;
1033 [label="entropy = 0.0\nsamples = 82\nvalue = [0, 82, 0, 0]"] ;
1029 -> 1033 ;
1034 [label="P1X <= 25.0\nentropy = 0.65\nsamples = 6\nvalue = [0, 5, 1, 0]"] ;
1026 -> 1034 ;
1035 [label="entropy = 0.0\nsamples = 1\nvalue = [0, 0, 1, 0]"] ;
1034 -> 1035 ;
1036 [label="entropy = 0.0\nsamples = 5\nvalue = [0, 5, 0, 0]"] ;
1034 -> 1036 ;
1037 [label="P1X <= 17.5\nentropy = 0.469\nsamples = 60\nvalue = [0, 54, 6, 0]"] ;
1025 -> 1037 ;
1038 [label="entropy = 0.0\nsamples = 6\nvalue = [0, 0, 6, 0]"] ;
1037 -> 1038 ;
1039 [label="entropy = 0.0\nsamples = 54\nvalue = [0, 54, 0, 0]"] ;
1037 -> 1039 ;
1040 [label="BallX <= 97.0\nentropy = 0.827\nsamples = 789\nvalue = [0, 607, 6, 176]"] ;
1010 -> 1040 ;
1041 [label="P2X <= 37.5\nentropy = 0.961\nsamples = 86\nvalue = [0, 33, 0, 53]"] ;
1040 -> 1041 ;
1042 [label="entropy = 0.0\nsamples = 35\nvalue = [0, 0, 0, 35]"] ;
1041 -> 1042 ;
1043 [label="BallY <= 226.5\nentropy = 0.937\nsamples = 51\nvalue = [0, 33, 0, 18]"] ;
1041 -> 1043 ;
1044 [label="BallY <= 209.0\nentropy = 0.276\nsamples = 21\nvalue = [0, 20, 0, 1]"] ;
1043 -> 1044 ;
1045 [label="entropy = 0.0\nsamples = 1\nvalue = [0, 0, 0, 1]"] ;
1044 -> 1045 ;
1046 [label="entropy = 0.0\nsamples = 20\nvalue = [0, 20, 0, 0]"] ;
1044 -> 1046 ;
1047 [label="BallSpeedX <= -20.5\nentropy = 0.987\nsamples = 30\nvalue = [0, 13, 0, 17]"] ;
1043 -> 1047 ;
1048 [label="entropy = 0.0\nsamples = 13\nvalue = [0, 13, 0, 0]"] ;
1047 -> 1048 ;
1049 [label="entropy = 0.0\nsamples = 17\nvalue = [0, 0, 0, 17]"] ;
1047 -> 1049 ;
1050 [label="BallY <= 182.5\nentropy = 0.737\nsamples = 703\nvalue = [0, 574, 6, 123]"] ;
1040 -> 1050 ;
1051 [label="P1X <= 52.5\nentropy = 0.722\nsamples = 30\nvalue = [0, 6, 0, 24]"] ;
1050 -> 1051 ;
1052 [label="entropy = 0.0\nsamples = 6\nvalue = [0, 6, 0, 0]"] ;
1051 -> 1052 ;
1053 [label="entropy = 0.0\nsamples = 24\nvalue = [0, 0, 0, 24]"] ;
1051 -> 1053 ;
1054 [label="blockerX <= 157.5\nentropy = 0.674\nsamples = 673\nvalue = [0, 568, 6, 99]"] ;
1050 -> 1054 ;
1055 [label="blockerX <= 97.5\nentropy = 0.583\nsamples = 624\nvalue = [0, 548, 6, 70]"] ;
1054 -> 1055 ;
1056 [label="blockerX <= 62.5\nentropy = 0.738\nsamples = 403\nvalue = [0, 330, 4, 69]"] ;
1055 -> 1056 ;
1057 [label="BallSpeedX <= -21.5\nentropy = 0.426\nsamples = 252\nvalue = [0, 234, 4, 14]"] ;
1056 -> 1057 ;
1058 [label="entropy = 0.0\nsamples = 4\nvalue = [0, 0, 0, 4]"] ;
1057 -> 1058 ;
1059 [label="P1X <= 80.0\nentropy = 0.362\nsamples = 248\nvalue = [0, 234, 4, 10]"] ;
1057 -> 1059 ;
1060 [label="P2X <= 27.5\nentropy = 0.313\nsamples = 246\nvalue = [0, 234, 2, 10]"] ;
1059 -> 1060 ;
1061 [label="P1X <= 62.5\nentropy = 0.693\nsamples = 59\nvalue = [0, 50, 1, 8]"] ;
1060 -> 1061 ;
1062 [label="blockerX <= 52.5\nentropy = 0.196\nsamples = 33\nvalue = [0, 32, 1, 0]"] ;
1061 -> 1062 ;
1063 [label="entropy = 0.0\nsamples = 32\nvalue = [0, 32, 0, 0]"] ;
1062 -> 1063 ;
1064 [label="entropy = 0.0\nsamples = 1\nvalue = [0, 0, 1, 0]"] ;
1062 -> 1064 ;
1065 [label="BallSpeedY <= -16.5\nentropy = 0.89\nsamples = 26\nvalue = [0, 18, 0, 8]"] ;
1061 -> 1065 ;
1066 [label="entropy = 0.0\nsamples = 8\nvalue = [0, 0, 0, 8]"] ;
1065 -> 1066 ;
1067 [label="entropy = 0.0\nsamples = 18\nvalue = [0, 18, 0, 0]"] ;
1065 -> 1067 ;
1068 [label="blockerX <= 17.5\nentropy = 0.133\nsamples = 187\nvalue = [0, 184, 1, 2]"] ;
1060 -> 1068 ;
1069 [label="BallY <= 205.5\nentropy = 0.229\nsamples = 27\nvalue = [0, 26, 1, 0]"] ;
1068 -> 1069 ;
1070 [label="blockerX <= 7.5\nentropy = 1.0\nsamples = 2\nvalue = [0, 1, 1, 0]"] ;
1069 -> 1070 ;
1071 [label="entropy = 0.0\nsamples = 1\nvalue = [0, 1, 0, 0]"] ;
1070 -> 1071 ;
1072 [label="entropy = 0.0\nsamples = 1\nvalue = [0, 0, 1, 0]"] ;
1070 -> 1072 ;
1073 [label="entropy = 0.0\nsamples = 25\nvalue = [0, 25, 0, 0]"] ;
1069 -> 1073 ;
1074 [label="BallY <= 247.5\nentropy = 0.097\nsamples = 160\nvalue = [0, 158, 0, 2]"] ;
1068 -> 1074 ;
1075 [label="blockerX <= 52.5\nentropy = 0.057\nsamples = 153\nvalue = [0, 152, 0, 1]"] ;
1074 -> 1075 ;
1076 [label="entropy = 0.0\nsamples = 105\nvalue = [0, 105, 0, 0]"] ;
1075 -> 1076 ;
1077 [label="BallY <= 206.5\nentropy = 0.146\nsamples = 48\nvalue = [0, 47, 0, 1]"] ;
1075 -> 1077 ;
1078 [label="BallY <= 194.5\nentropy = 0.439\nsamples = 11\nvalue = [0, 10, 0, 1]"] ;
1077 -> 1078 ;
1079 [label="entropy = 0.0\nsamples = 10\nvalue = [0, 10, 0, 0]"] ;
1078 -> 1079 ;
1080 [label="entropy = 0.0\nsamples = 1\nvalue = [0, 0, 0, 1]"] ;
1078 -> 1080 ;
1081 [label="entropy = 0.0\nsamples = 37\nvalue = [0, 37, 0, 0]"] ;
1077 -> 1081 ;
1082 [label="blockerX <= 27.5\nentropy = 0.592\nsamples = 7\nvalue = [0, 6, 0, 1]"] ;
1074 -> 1082 ;
1083 [label="entropy = 0.0\nsamples = 6\nvalue = [0, 6, 0, 0]"] ;
1082 -> 1083 ;
1084 [label="entropy = 0.0\nsamples = 1\nvalue = [0, 0, 0, 1]"] ;
1082 -> 1084 ;
1085 [label="entropy = 0.0\nsamples = 2\nvalue = [0, 0, 2, 0]"] ;
1059 -> 1085 ;
1086 [label="P2X <= 37.5\nentropy = 0.946\nsamples = 151\nvalue = [0, 96, 0, 55]"] ;
1056 -> 1086 ;
1087 [label="BallSpeedX <= -15.5\nentropy = 0.999\nsamples = 107\nvalue = [0, 52, 0, 55]"] ;
1086 -> 1087 ;
1088 [label="BallSpeedY <= -16.5\nentropy = 0.922\nsamples = 83\nvalue = [0, 28, 0, 55]"] ;
1087 -> 1088 ;
1089 [label="BallX <= 151.5\nentropy = 0.771\nsamples = 31\nvalue = [0, 24, 0, 7]"] ;
1088 -> 1089 ;
1090 [label="entropy = 0.0\nsamples = 19\nvalue = [0, 19, 0, 0]"] ;
1089 -> 1090 ;
1091 [label="BallSpeedX <= -17.5\nentropy = 0.98\nsamples = 12\nvalue = [0, 5, 0, 7]"] ;
1089 -> 1091 ;
1092 [label="entropy = 0.0\nsamples = 7\nvalue = [0, 0, 0, 7]"] ;
1091 -> 1092 ;
1093 [label="entropy = 0.0\nsamples = 5\nvalue = [0, 5, 0, 0]"] ;
1091 -> 1093 ;
1094 [label="blockerDir <= 0.0\nentropy = 0.391\nsamples = 52\nvalue = [0, 4, 0, 48]"] ;
1088 -> 1094 ;
1095 [label="entropy = 0.0\nsamples = 4\nvalue = [0, 4, 0, 0]"] ;
1094 -> 1095 ;
1096 [label="entropy = 0.0\nsamples = 48\nvalue = [0, 0, 0, 48]"] ;
1094 -> 1096 ;
1097 [label="entropy = 0.0\nsamples = 24\nvalue = [0, 24, 0, 0]"] ;
1087 -> 1097 ;
1098 [label="entropy = 0.0\nsamples = 44\nvalue = [0, 44, 0, 0]"] ;
1086 -> 1098 ;
1099 [label="P1X <= 52.5\nentropy = 0.116\nsamples = 221\nvalue = [0, 218, 2, 1]"] ;
1055 -> 1099 ;
1100 [label="entropy = 0.0\nsamples = 1\nvalue = [0, 0, 1, 0]"] ;
1099 -> 1100 ;
1101 [label="P1X <= 62.5\nentropy = 0.084\nsamples = 220\nvalue = [0, 218, 1, 1]"] ;
1099 -> 1101 ;
1102 [label="BallSpeedY <= -15.5\nentropy = 0.267\nsamples = 22\nvalue = [0, 21, 0, 1]"] ;
1101 -> 1102 ;
1103 [label="entropy = 0.0\nsamples = 21\nvalue = [0, 21, 0, 0]"] ;
1102 -> 1103 ;
1104 [label="entropy = 0.0\nsamples = 1\nvalue = [0, 0, 0, 1]"] ;
1102 -> 1104 ;
1105 [label="BallSpeedX <= -19.5\nentropy = 0.046\nsamples = 198\nvalue = [0, 197, 1, 0]"] ;
1101 -> 1105 ;
1106 [label="blockerX <= 137.5\nentropy = 0.276\nsamples = 21\nvalue = [0, 20, 1, 0]"] ;
1105 -> 1106 ;
1107 [label="entropy = 0.0\nsamples = 20\nvalue = [0, 20, 0, 0]"] ;
1106 -> 1107 ;
1108 [label="entropy = 0.0\nsamples = 1\nvalue = [0, 0, 1, 0]"] ;
1106 -> 1108 ;
1109 [label="entropy = 0.0\nsamples = 177\nvalue = [0, 177, 0, 0]"] ;
1105 -> 1109 ;
1110 [label="P1X <= 72.5\nentropy = 0.976\nsamples = 49\nvalue = [0, 20, 0, 29]"] ;
1054 -> 1110 ;
1111 [label="entropy = 0.0\nsamples = 15\nvalue = [0, 15, 0, 0]"] ;
1110 -> 1111 ;
1112 [label="BallSpeedX <= -16.5\nentropy = 0.602\nsamples = 34\nvalue = [0, 5, 0, 29]"] ;
1110 -> 1112 ;
1113 [label="entropy = 0.0\nsamples = 29\nvalue = [0, 0, 0, 29]"] ;
1112 -> 1113 ;
1114 [label="entropy = 0.0\nsamples = 5\nvalue = [0, 5, 0, 0]"] ;
1112 -> 1114 ;
1115 [label="P1X <= 52.5\nentropy = 1.084\nsamples = 1338\nvalue = [0, 843, 34, 461]"] ;
1009 -> 1115 ;
